svm_type c_svc
kernel_type rbf
gamma 0.5
nr_class 2
total_sv 15143
rho 0.9940184721693262
label 1 0
probA -3.9415486593714495
probB 1.2805921930161024
nr_sv 526 14617
SV
1.0 0:1.0 1:0.0 2:1.0 3:0.0 4:0.0 5:0.0 6:0.3846153846153846 7:0.0 8:1.0 9:1.0 10:1.0 
1.0 0:1.0 1:112.0 2:112.0 3:0.0 4:0.0 5:0.0 6:0.8571428571428572 7:0.0 8:1.0 9:1.0 10:0.0 
1.0 0:1.0 1:3.0 2:3.0 3:0.0 4:0.0 5:0.0 6:0.8888888888888888 7:0.0 8:0.0 9:0.0 10:0.0 
1.0 0:0.0 1:47.0 2:13.0 3:1.0 4:1.0 5:0.0 6:0.7777777777777778 7:0.0 8:0.0 9:0.0 10:0.0 
1.0 0:1.0 1:1.0 2:2.0 3:0.0 4:0.0 5:0.0 6:0.8888888888888888 7:0.0 8:0.0 9:0.0 10:0.0 
1.0 0:1.0 1:4.0 2:3.0 3:0.0 4:0.0 5:0.0 6:0.5 7:0.0 8:0.0 9:0.0 10:0.0 
1.0 0:1.0 1:0.0 2:0.0 3:0.0 4:0.0 5:0.0 6:0.9 7:0.0 8:1.0 9:1.0 10:0.0 
1.0 0:1.0 1:0.0 2:0.0 3:0.0 4:0.0 5:0.0 6:0.9 7:0.0 8:1.0 9:1.0 10:0.0 
1.0 0:1.0 1:5.0 2:5.0 3:0.0 4:0.0 5:0.0 6:0.8888888888888888 7:0.0 8:1.0 9:1.0 10:1.0 
1.0 0:1.0 1:28.0 2:32.0 3:0.0 4:0.0 5:0.0 6:0.8 7:0.0 8:1.0 9:1.0 10:1.0 
0.07512839944937054 0:1.0 1:0.0 2:0.0 3:0.0 4:0.0 5:0.0 6:0.125 7:0.0 8:0.0 9:0.0 10:0.0 
1.0 0:1.0 1:1.0 2:0.0 3:0.0 4:0.0 5:0.0 6:0.5555555555555556 7:0.0 8:1.0 9:1.0 10:1.0 
1.0 0:1.0 1:3.0 2:3.0 3:0.0 4:0.0 5:0.0 6:0.8888888888888888 7:0.0 8:1.0 9:1.0 10:1.0 
1.0 0:1.0 1:0.0 2:1.0 3:0.0 4:0.0 5:0.0 6:0.5263157894736843 7:0.0 8:0.0 9:0.0 10:0.0 
1.0 0:1.0 1:28.0 2:32.0 3:0.0 4:0.0 5:0.0 6:0.8 7:0.0 8:1.0 9:1.0 10:1.0 
0.3405219483757085 0:1.0 1:2.0 2:0.0 3:0.0 4:0.0 5:0.0 6:0.8 7:0.0 8:1.0 9:1.0 10:1.0 
1.0 0:1.0 1:5.0 2:7.0 3:0.0 4:0.0 5:0.0 6:0.8571428571428572 7:0.0 8:1.0 9:1.0 10:1.0 
1.0 0:0.0 1:4.0 2:3.0 3:1.0 4:1.0 5:0.0 6:0.3571428571428571 7:0.0 8:1.0 9:0.0 10:0.0 
0.8849743585369938 0:0.0 1:2.0 2:2.0 3:1.0 4:1.0 5:0.0 6:0.8571428571428572 7:0.0 8:1.0 9:0.0 10:0.0 
1.0 0:0.0 1:1.0 2:1.0 3:1.0 4:1.0 5:0.0 6:0.125 7:0.0 8:1.0 9:1.0 10:1.0 
1.0 0:0.0 1:0.0 2:0.0 3:1.0 4:1.0 5:0.0 6:0.9166666666666666 7:0.0 8:1.0 9:1.0 10:1.0 
1.0 0:0.0 1:0.0 2:0.0 3:0.0 4:1.0 5:0.0 6:0.875 7:0.0 8:0.0 9:0.0 10:0.0 
0.4915211937861367 0:0.0 1:0.0 2:0.0 3:0.0 4:1.0 5:0.0 6:0.8571428571428572 7:0.0 8:0.0 9:0.0 10:0.0 
1.0 0:0.0 1:1.0 2:1.0 3:0.0 4:1.0 5:0.0 6:0.8571428571428572 7:0.0 8:0.0 9:0.0 10:0.0 
1.0 0:1.0 1:1.0 2:1.0 3:0.0 4:0.0 5:0.0 6:0.10810810810810811 7:0.0 8:1.0 9:0.0 10:1.0 
1.0 0:1.0 1:6.0 2:2.0 3:0.0 4:0.0 5:0.0 6:0.25 7:0.0 8:1.0 9:1.0 10:0.0 
1.0 0:0.0 1:0.0 2:0.0 3:1.0 4:0.0 5:0.0 6:0.875 7:0.0 8:1.0 9:1.0 10:0.0 
1.0 0:1.0 1:0.0 2:0.0 3:0.0 4:0.0 5:0.0 6:0.9166666666666666 7:0.0 8:1.0 9:1.0 10:1.0 
1.0 0:1.0 1:4.0 2:3.0 3:0.0 4:0.0 5:0.0 6:0.5 7:0.0 8:1.0 9:0.0 10:0.0 
1.0 0:1.0 1:1.0 2:2.0 3:0.0 4:0.0 5:0.0 6:0.8888888888888888 7:0.0 8:1.0 9:0.0 10:0.0 
1.0 0:1.0 1:56.0 2:57.0 3:0.0 4:0.0 5:0.0 6:0.8888888888888888 7:0.0 8:1.0 9:1.0 10:1.0 
0.21644126026551566 0:0.0 1:1.0 2:1.0 3:1.0 4:1.0 5:0.0 6:0.4545454545454546 7:0.0 8:1.0 9:1.0 10:1.0 
1.0 0:0.0 1:1.0 2:1.0 3:1.0 4:1.0 5:0.0 6:0.9 7:0.0 8:1.0 9:1.0 10:0.0 
1.0 0:0.0 1:5.0 2:1.0 3:1.0 4:1.0 5:0.0 6:0.8333333333333334 7:0.0 8:1.0 9:1.0 10:0.0 
1.0 0:1.0 1:1.0 2:1.0 3:0.0 4:0.0 5:0.0 6:0.875 7:0.0 8:1.0 9:1.0 10:1.0 
1.0 0:1.0 1:0.0 2:0.0 3:0.0 4:0.0 5:0.0 6:0.23529411764705888 7:0.0 8:1.0 9:0.0 10:1.0 
1.0 0:1.0 1:0.0 2:0.0 3:0.0 4:0.0 5:0.0 6:0.9 7:0.0 8:0.0 9:0.0 10:0.0 
0.35968414229257134 0:1.0 1:0.0 2:1.0 3:0.0 4:0.0 5:0.0 6:0.3846153846153846 7:0.0 8:0.0 9:0.0 10:0.0 
1.0 0:1.0 1:0.0 2:1.0 3:0.0 4:0.0 5:0.0 6:0.4736842105263158 7:0.0 8:0.0 9:0.0 10:0.0 
1.0 0:1.0 1:2.0 2:1.0 3:0.0 4:0.0 5:0.0 6:0.6666666666666667 7:0.0 8:1.0 9:1.0 10:1.0 
1.0 0:1.0 1:0.0 2:1.0 3:0.0 4:0.0 5:0.0 6:0.2222222222222222 7:0.0 8:0.0 9:0.0 10:0.0 
1.0 0:1.0 1:1.0 2:0.0 3:0.0 4:0.0 5:0.0 6:0.8571428571428572 7:0.0 8:0.0 9:0.0 10:0.0 
1.0 0:1.0 1:1.0 2:2.0 3:0.0 4:0.0 5:0.0 6:0.8888888888888888 7:0.0 8:1.0 9:1.0 10:1.0 
1.0 0:1.0 1:4.0 2:3.0 3:0.0 4:0.0 5:0.0 6:0.5 7:0.0 8:1.0 9:1.0 10:1.0 
0.9782341946298994 0:1.0 1:0.0 2:0.0 3:0.0 4:0.0 5:0.0 6:0.8888888888888888 7:0.0 8:1.0 9:1.0 10:1.0 
1.0 0:1.0 1:1.0 2:0.0 3:0.0 4:0.0 5:0.0 6:0.625 7:0.0 8:1.0 9:1.0 10:1.0 
1.0 0:0.0 1:1.0 2:1.0 3:1.0 4:1.0 5:0.0 6:0.46153846153846156 7:0.0 8:1.0 9:1.0 10:0.0 
0.18847198599190199 0:0.0 1:0.0 2:0.0 3:1.0 4:1.0 5:0.0 6:0.0 7:0.0 8:1.0 9:1.0 10:0.0 
1.0 0:1.0 1:7.0 2:8.0 3:0.0 4:0.0 5:0.0 6:0.8461538461538461 7:0.0 8:0.0 9:0.0 10:0.0 
1.0 0:1.0 1:5.0 2:5.0 3:0.0 4:0.0 5:0.0 6:0.7777777777777778 7:0.0 8:1.0 9:0.0 10:1.0 
0.9153129653335043 0:1.0 1:0.0 2:2.0 3:0.0 4:0.0 5:0.0 6:0.7777777777777778 7:0.0 8:1.0 9:0.0 10:0.0 
1.0 0:1.0 1:4.0 2:1.0 3:0.0 4:0.0 5:0.0 6:0.4375 7:0.0 8:1.0 9:0.0 10:0.0 
1.0 0:0.0 1:1.0 2:1.0 3:1.0 4:0.0 5:0.0 6:0.8333333333333334 7:0.0 8:1.0 9:1.0 10:1.0 
1.0 0:1.0 1:1.0 2:1.0 3:0.0 4:0.0 5:0.0 6:0.38095238095238093 7:0.0 8:0.0 9:0.0 10:0.0 
1.0 0:0.0 1:1.0 2:1.0 3:1.0 4:1.0 5:0.0 6:0.2857142857142857 7:0.0 8:1.0 9:1.0 10:1.0 
1.0 0:1.0 1:1.0 2:3.0 3:0.0 4:0.0 5:0.0 6:0.875 7:0.0 8:1.0 9:1.0 10:0.0 
1.0 0:1.0 1:1.0 2:1.0 3:0.0 4:0.0 5:0.0 6:0.38888888888888884 7:0.0 8:1.0 9:1.0 10:1.0 
1.0 0:1.0 1:10.0 2:3.0 3:0.0 4:0.0 5:0.0 6:0.38888888888888884 7:0.0 8:1.0 9:1.0 10:1.0 
1.0 0:0.0 1:2.0 2:5.0 3:1.0 4:1.0 5:0.0 6:0.2666666666666667 7:0.0 8:1.0 9:1.0 10:1.0 
1.0 0:0.0 1:3.0 2:6.0 3:1.0 4:1.0 5:0.0 6:0.2666666666666667 7:0.0 8:1.0 9:1.0 10:1.0 
1.0 0:0.0 1:21.0 2:17.0 3:1.0 4:1.0 5:0.0 6:0.4375 7:0.0 8:1.0 9:1.0 10:1.0 
1.0 0:0.0 1:1.0 2:4.0 3:1.0 4:1.0 5:0.0 6:0.4 7:0.0 8:1.0 9:1.0 10:1.0 
1.0 0:0.0 1:6.0 2:3.0 3:1.0 4:1.0 5:0.0 6:0.8181818181818181 7:0.0 8:1.0 9:1.0 10:1.0 
0.38567021413469244 0:0.0 1:0.0 2:0.0 3:1.0 4:1.0 5:0.0 6:0.9090909090909091 7:1.0 8:1.0 9:1.0 10:1.0 
1.0 0:0.0 1:1.0 2:1.0 3:1.0 4:1.0 5:0.0 6:0.2857142857142857 7:0.0 8:1.0 9:1.0 10:1.0 
1.0 0:1.0 1:1.0 2:2.0 3:0.0 4:0.0 5:0.0 6:0.8888888888888888 7:0.0 8:1.0 9:1.0 10:1.0 
1.0 0:1.0 1:4.0 2:3.0 3:0.0 4:0.0 5:0.0 6:0.5 7:0.0 8:1.0 9:1.0 10:1.0 
1.0 0:0.0 1:4.0 2:5.0 3:1.0 4:1.0 5:0.0 6:0.8571428571428572 7:0.0 8:1.0 9:1.0 10:1.0 
0.8841620703956242 0:0.0 1:0.0 2:17.0 3:1.0 4:1.0 5:0.0 6:0.23076923076923073 7:0.0 8:0.0 9:0.0 10:0.0 
1.0 0:0.0 1:1.0 2:1.0 3:1.0 4:1.0 5:0.0 6:0.8888888888888888 7:0.0 8:1.0 9:1.0 10:1.0 
1.0 0:1.0 1:1.0 2:1.0 3:0.0 4:0.0 5:0.0 6:0.4545454545454546 7:0.0 8:1.0 9:1.0 10:1.0 
1.0 0:0.0 1:1.0 2:1.0 3:1.0 4:0.0 5:0.0 6:0.8888888888888888 7:0.0 8:0.0 9:0.0 10:0.0 
1.0 0:1.0 1:1.0 2:2.0 3:0.0 4:0.0 5:0.0 6:0.8888888888888888 7:0.0 8:0.0 9:0.0 10:0.0 
1.0 0:1.0 1:0.0 2:0.0 3:0.0 4:0.0 5:0.0 6:0.1923076923076923 7:0.0 8:1.0 9:0.0 10:1.0 
1.0 0:0.0 1:2.0 2:1.0 3:1.0 4:0.0 5:0.0 6:0.33333333333333337 7:0.0 8:1.0 9:1.0 10:1.0 
0.3021239711778459 0:0.0 1:0.0 2:2.0 3:1.0 4:0.0 5:0.0 6:0.8 7:0.0 8:1.0 9:1.0 10:1.0 
0.6765836074689322 0:0.0 1:1.0 2:15.0 3:1.0 4:1.0 5:0.0 6:0.7777777777777778 7:0.0 8:1.0 9:1.0 10:1.0 
1.0 0:0.0 1:2.0 2:0.0 3:1.0 4:1.0 5:0.0 6:0.7777777777777778 7:0.0 8:1.0 9:1.0 10:1.0 
1.0 0:0.0 1:47.0 2:13.0 3:1.0 4:1.0 5:0.0 6:0.7777777777777778 7:0.0 8:1.0 9:1.0 10:1.0 
1.0 0:1.0 1:4.0 2:3.0 3:0.0 4:0.0 5:0.0 6:0.3571428571428571 7:0.0 8:1.0 9:0.0 10:0.0 
1.0 0:1.0 1:0.0 2:1.0 3:0.0 4:0.0 5:0.0 6:0.3571428571428571 7:0.0 8:1.0 9:0.0 10:0.0 
1.0 0:1.0 1:1.0 2:1.0 3:0.0 4:0.0 5:0.0 6:0.8888888888888888 7:0.0 8:0.0 9:0.0 10:0.0 
1.0 0:1.0 1:3.0 2:5.0 3:0.0 4:0.0 5:0.0 6:0.9 7:0.0 8:1.0 9:1.0 10:1.0 
1.0 0:1.0 1:4.0 2:1.0 3:0.0 4:0.0 5:0.0 6:0.30000000000000004 7:0.0 8:1.0 9:1.0 10:1.0 
1.0 0:1.0 1:0.0 2:0.0 3:0.0 4:0.0 5:0.0 6:0.9 7:0.0 8:1.0 9:1.0 10:1.0 
1.0 0:0.0 1:28.0 2:32.0 3:1.0 4:1.0 5:0.0 6:0.8 7:0.0 8:1.0 9:0.0 10:0.0 
1.0 0:0.0 1:0.0 2:6.0 3:1.0 4:1.0 5:0.0 6:0.8 7:0.0 8:1.0 9:0.0 10:0.0 
1.0 0:0.0 1:1.0 2:9.0 3:1.0 4:1.0 5:0.0 6:0.8 7:0.0 8:1.0 9:0.0 10:0.0 
0.8922827534663 0:0.0 1:2.0 2:0.0 3:1.0 4:1.0 5:0.0 6:0.8 7:0.0 8:1.0 9:0.0 10:0.0 
1.0 0:1.0 1:3.0 2:5.0 3:0.0 4:0.0 5:0.0 6:0.9 7:0.0 8:1.0 9:1.0 10:1.0 
1.0 0:1.0 1:4.0 2:1.0 3:0.0 4:0.0 5:0.0 6:0.30000000000000004 7:0.0 8:1.0 9:1.0 10:1.0 
1.0 0:1.0 1:0.0 2:0.0 3:0.0 4:0.0 5:0.0 6:0.9 7:0.0 8:1.0 9:1.0 10:1.0 
1.0 0:0.0 1:1.0 2:1.0 3:1.0 4:1.0 5:0.0 6:0.25 7:0.0 8:1.0 9:1.0 10:1.0 
1.0 0:1.0 1:1.0 2:3.0 3:0.0 4:0.0 5:0.0 6:0.875 7:0.0 8:1.0 9:1.0 10:0.0 
1.0 0:1.0 1:1.0 2:1.0 3:0.0 4:0.0 5:0.0 6:0.875 7:0.0 8:0.0 9:0.0 10:0.0 
1.0 0:1.0 1:0.0 2:0.0 3:0.0 4:0.0 5:0.0 6:0.9090909090909091 7:0.0 8:1.0 9:1.0 10:1.0 
0.9940392959415141 0:1.0 1:0.0 2:57.0 3:0.0 4:0.0 5:0.0 6:0.7 7:0.0 8:0.0 9:0.0 10:0.0 
1.0 0:1.0 1:31.0 2:100.0 3:0.0 4:0.0 5:0.0 6:0.7 7:0.0 8:0.0 9:0.0 10:0.0 
1.0 0:1.0 1:5.0 2:5.0 3:0.0 4:0.0 5:0.0 6:0.7777777777777778 7:0.0 8:1.0 9:0.0 10:1.0 
0.7845694915043826 0:1.0 1:0.0 2:2.0 3:0.0 4:0.0 5:0.0 6:0.7777777777777778 7:0.0 8:1.0 9:0.0 10:0.0 
0.8490929764409432 0:1.0 1:1.0 2:0.0 3:0.0 4:0.0 5:0.0 6:0.17948717948717952 7:0.0 8:1.0 9:0.0 10:0.0 
1.0 0:1.0 1:4.0 2:1.0 3:0.0 4:0.0 5:0.0 6:0.4375 7:0.0 8:1.0 9:0.0 10:0.0 
0.5716563384269047 0:0.0 1:0.0 2:0.0 3:1.0 4:1.0 5:0.0 6:0.9090909090909091 7:0.0 8:0.0 9:0.0 10:0.0 
1.0 0:1.0 1:1.0 2:1.0 3:0.0 4:0.0 5:0.0 6:0.8888888888888888 7:0.0 8:0.0 9:0.0 10:0.0 
1.0 0:1.0 1:0.0 2:1.0 3:0.0 4:0.0 5:0.0 6:0.8571428571428572 7:0.0 8:1.0 9:1.0 10:0.0 
1.0 0:0.0 1:185.0 2:23.0 3:1.0 4:1.0 5:0.0 6:0.9 7:0.0 8:1.0 9:1.0 10:1.0 
1.0 0:0.0 1:216.0 2:218.0 3:1.0 4:1.0 5:0.0 6:0.9 7:0.0 8:1.0 9:1.0 10:1.0 
1.0 0:0.0 1:1.0 2:0.0 3:1.0 4:0.0 5:0.0 6:0.75 7:0.0 8:1.0 9:1.0 10:1.0 
1.0 0:0.0 1:2.0 2:20.0 3:1.0 4:0.0 5:0.0 6:0.17647058823529416 7:0.0 8:1.0 9:1.0 10:1.0 
1.0 0:0.0 1:1.0 2:1.0 3:1.0 4:1.0 5:0.0 6:0.46153846153846156 7:0.0 8:0.0 9:0.0 10:0.0 
1.0 0:1.0 1:8.0 2:3.0 3:0.0 4:0.0 5:0.0 6:0.8571428571428572 7:0.0 8:0.0 9:0.0 10:0.0 
1.0 0:0.0 1:1.0 2:1.0 3:1.0 4:0.0 5:0.0 6:0.8888888888888888 7:0.0 8:0.0 9:0.0 10:0.0 
1.0 0:0.0 1:1.0 2:1.0 3:1.0 4:1.0 5:0.0 6:0.875 7:0.0 8:1.0 9:1.0 10:1.0 
0.6125242504516273 0:0.0 1:0.0 2:0.0 3:1.0 4:0.0 5:0.0 6:0.8333333333333334 7:0.0 8:1.0 9:1.0 10:1.0 
1.0 0:0.0 1:1.0 2:0.0 3:1.0 4:0.0 5:0.0 6:0.33333333333333337 7:0.0 8:1.0 9:1.0 10:1.0 
0.8928104758277874 0:0.0 1:0.0 2:1.0 3:1.0 4:0.0 5:0.0 6:0.23333333333333328 7:0.0 8:1.0 9:1.0 10:1.0 
1.0 0:1.0 1:1.0 2:1.0 3:0.0 4:0.0 5:0.0 6:0.46153846153846156 7:0.0 8:1.0 9:1.0 10:1.0 
1.0 0:1.0 1:16.0 2:10.0 3:0.0 4:0.0 5:0.0 6:0.8333333333333334 7:0.0 8:0.0 9:0.0 10:0.0 
1.0 0:1.0 1:6.0 2:1.0 3:0.0 4:0.0 5:0.0 6:0.26315789473684215 7:0.0 8:0.0 9:0.0 10:0.0 
1.0 0:1.0 1:5.0 2:3.0 3:0.0 4:0.0 5:0.0 6:0.33333333333333337 7:0.0 8:0.0 9:0.0 10:0.0 
1.0 0:1.0 1:0.0 2:0.0 3:0.0 4:0.0 5:0.0 6:0.9 7:0.0 8:1.0 9:1.0 10:0.0 
1.0 0:0.0 1:0.0 2:0.0 3:1.0 4:0.0 5:0.0 6:0.25 7:0.0 8:1.0 9:1.0 10:1.0 
1.0 0:1.0 1:1.0 2:1.0 3:0.0 4:0.0 5:0.0 6:0.8 7:0.0 8:1.0 9:1.0 10:1.0 
1.0 0:0.0 1:3.0 2:7.0 3:1.0 4:1.0 5:0.0 6:0.8333333333333334 7:0.0 8:1.0 9:1.0 10:1.0 
1.0 0:0.0 1:1.0 2:1.0 3:1.0 4:1.0 5:0.0 6:0.2857142857142857 7:0.0 8:1.0 9:1.0 10:1.0 
1.0 0:0.0 1:1.0 2:0.0 3:1.0 4:0.0 5:0.0 6:0.8888888888888888 7:0.0 8:1.0 9:1.0 10:1.0 
1.0 0:0.0 1:4.0 2:5.0 3:1.0 4:1.0 5:0.0 6:0.8571428571428572 7:0.0 8:1.0 9:1.0 10:1.0 
1.0 0:1.0 1:0.0 2:1.0 3:0.0 4:0.0 5:0.0 6:0.4736842105263158 7:0.0 8:0.0 9:0.0 10:0.0 
1.0 0:1.0 1:1.0 2:0.0 3:0.0 4:0.0 5:0.0 6:0.7142857142857143 7:0.0 8:1.0 9:1.0 10:1.0 
0.4170223236437376 0:0.0 1:16.0 2:3.0 3:1.0 4:1.0 5:0.0 6:0.27586206896551724 7:0.0 8:1.0 9:0.0 10:0.0 
0.9273700766400432 0:0.0 1:1063.0 2:1068.0 3:1.0 4:1.0 5:0.0 6:0.8461538461538461 7:0.0 8:1.0 9:1.0 10:1.0 
1.0 0:0.0 1:1.0 2:1.0 3:1.0 4:1.0 5:0.0 6:0.875 7:0.0 8:1.0 9:1.0 10:1.0 
1.0 0:1.0 1:0.0 2:0.0 3:0.0 4:0.0 5:0.0 6:0.8888888888888888 7:0.0 8:1.0 9:1.0 10:1.0 
1.0 0:1.0 1:1.0 2:1.0 3:0.0 4:0.0 5:0.0 6:0.875 7:0.0 8:1.0 9:1.0 10:1.0 
1.0 0:1.0 1:8.0 2:3.0 3:0.0 4:0.0 5:0.0 6:0.8571428571428572 7:0.0 8:0.0 9:0.0 10:0.0 
1.0 0:1.0 1:28.0 2:32.0 3:0.0 4:0.0 5:0.0 6:0.8 7:0.0 8:1.0 9:1.0 10:1.0 
0.9785582542644289 0:1.0 1:0.0 2:6.0 3:0.0 4:0.0 5:0.0 6:0.8 7:0.0 8:1.0 9:1.0 10:1.0 
0.6671250721531277 0:1.0 1:1.0 2:9.0 3:0.0 4:0.0 5:0.0 6:0.8 7:0.0 8:1.0 9:1.0 10:1.0 
1.0 0:1.0 1:2.0 2:0.0 3:0.0 4:0.0 5:0.0 6:0.8 7:0.0 8:1.0 9:1.0 10:1.0 
1.0 0:0.0 1:0.0 2:3.0 3:1.0 4:0.0 5:0.0 6:0.8 7:0.0 8:1.0 9:1.0 10:1.0 
0.042632460112574606 0:1.0 1:0.0 2:0.0 3:0.0 4:0.0 5:0.0 6:0.8333333333333334 7:0.0 8:1.0 9:0.0 10:1.0 
1.0 0:0.0 1:1.0 2:2.0 3:1.0 4:0.0 5:0.0 6:0.8 7:0.0 8:0.0 9:0.0 10:0.0 
1.0 0:0.0 1:1.0 2:1.0 3:1.0 4:0.0 5:0.0 6:0.46153846153846156 7:0.0 8:1.0 9:1.0 10:1.0 
0.06838368225366853 0:1.0 1:0.0 2:0.0 3:0.0 4:0.0 5:0.0 6:0.8666666666666667 7:1.0 8:1.0 9:0.0 10:0.0 
1.0 0:1.0 1:0.0 2:2.0 3:0.0 4:0.0 5:0.0 6:0.33333333333333337 7:0.0 8:1.0 9:1.0 10:0.0 
1.0 0:1.0 1:0.0 2:0.0 3:0.0 4:0.0 5:0.0 6:0.9166666666666666 7:0.0 8:1.0 9:1.0 10:1.0 
1.0 0:1.0 1:0.0 2:0.0 3:0.0 4:0.0 5:0.0 6:0.9090909090909091 7:0.0 8:1.0 9:1.0 10:0.0 
1.0 0:1.0 1:1.0 2:1.0 3:0.0 4:0.0 5:0.0 6:0.8571428571428572 7:0.0 8:1.0 9:1.0 10:1.0 
1.0 0:0.0 1:5.0 2:5.0 3:0.0 4:0.0 5:0.0 6:0.7777777777777778 7:0.0 8:1.0 9:0.0 10:0.0 
1.0 0:0.0 1:1.0 2:0.0 3:0.0 4:1.0 5:0.0 6:0.17948717948717952 7:0.0 8:1.0 9:0.0 10:0.0 
1.0 0:0.0 1:4.0 2:1.0 3:0.0 4:1.0 5:0.0 6:0.4375 7:0.0 8:1.0 9:0.0 10:0.0 
1.0 0:0.0 1:4.0 2:3.0 3:0.0 4:1.0 5:0.0 6:0.5 7:0.0 8:1.0 9:0.0 10:0.0 
1.0 0:0.0 1:1.0 2:2.0 3:0.0 4:1.0 5:0.0 6:0.8888888888888888 7:0.0 8:1.0 9:0.0 10:0.0 
1.0 0:0.0 1:1.0 2:2.0 3:1.0 4:1.0 5:0.0 6:0.3571428571428571 7:0.0 8:1.0 9:1.0 10:1.0 
1.0 0:0.0 1:1.0 2:1.0 3:1.0 4:1.0 5:0.0 6:0.25 7:0.0 8:1.0 9:1.0 10:1.0 
1.0 0:0.0 1:1.0 2:45.0 3:1.0 4:1.0 5:0.0 6:0.7777777777777778 7:0.0 8:0.0 9:0.0 10:0.0 
1.0 0:0.0 1:152.0 2:152.0 3:1.0 4:1.0 5:0.0 6:0.7777777777777778 7:0.0 8:0.0 9:0.0 10:0.0 
1.0 0:0.0 1:0.0 2:21.0 3:1.0 4:1.0 5:0.0 6:0.2941176470588235 7:0.0 8:0.0 9:0.0 10:0.0 
1.0 0:0.0 1:1.0 2:1.0 3:1.0 4:1.0 5:0.0 6:0.46153846153846156 7:0.0 8:0.0 9:0.0 10:0.0 
1.0 0:1.0 1:1.0 2:1.0 3:0.0 4:0.0 5:0.0 6:0.8333333333333334 7:0.0 8:0.0 9:0.0 10:0.0 
1.0 0:0.0 1:87.0 2:89.0 3:1.0 4:1.0 5:0.0 6:0.875 7:0.0 8:1.0 9:1.0 10:1.0 
1.0 0:0.0 1:2.0 2:1.0 3:1.0 4:1.0 5:0.0 6:0.07692307692307687 7:0.0 8:1.0 9:1.0 10:1.0 
1.0 0:0.0 1:16.0 2:3.0 3:1.0 4:1.0 5:0.0 6:0.27586206896551724 7:0.0 8:1.0 9:0.0 10:0.0 
0.560126208805536 0:0.0 1:27.0 2:23.0 3:1.0 4:1.0 5:0.0 6:0.30000000000000004 7:0.0 8:1.0 9:0.0 10:0.0 
1.0 0:1.0 1:1.0 2:2.0 3:0.0 4:0.0 5:0.0 6:0.8888888888888888 7:0.0 8:0.0 9:0.0 10:0.0 
1.0 0:0.0 1:1.0 2:1.0 3:1.0 4:1.0 5:0.0 6:0.08333333333333337 7:0.0 8:1.0 9:1.0 10:1.0 
0.6656809979507692 0:0.0 1:2.0 2:0.0 3:1.0 4:1.0 5:0.0 6:0.7777777777777778 7:0.0 8:1.0 9:1.0 10:1.0 
1.0 0:0.0 1:1.0 2:15.0 3:1.0 4:1.0 5:0.0 6:0.7777777777777778 7:0.0 8:1.0 9:1.0 10:1.0 
1.0 0:0.0 1:47.0 2:13.0 3:1.0 4:1.0 5:0.0 6:0.7777777777777778 7:0.0 8:1.0 9:1.0 10:1.0 
1.0 0:1.0 1:0.0 2:1.0 3:0.0 4:0.0 5:0.0 6:0.3571428571428571 7:0.0 8:0.0 9:0.0 10:0.0 
1.0 0:1.0 1:4.0 2:3.0 3:0.0 4:0.0 5:0.0 6:0.3571428571428571 7:0.0 8:0.0 9:0.0 10:0.0 
1.0 0:1.0 1:5.0 2:5.0 3:0.0 4:0.0 5:0.0 6:0.875 7:0.0 8:1.0 9:1.0 10:1.0 
1.0 0:1.0 1:0.0 2:2.0 3:0.0 4:0.0 5:0.0 6:0.5833333333333333 7:0.0 8:1.0 9:1.0 10:1.0 
0.8838174013558251 0:0.0 1:0.0 2:0.0 3:1.0 4:0.0 5:0.0 6:0.09999999999999998 7:0.0 8:0.0 9:0.0 10:0.0 
1.0 0:1.0 1:0.0 2:0.0 3:0.0 4:0.0 5:0.0 6:0.9 7:0.0 8:1.0 9:1.0 10:1.0 
1.0 0:0.0 1:1.0 2:1.0 3:1.0 4:0.0 5:0.0 6:0.8571428571428572 7:0.0 8:1.0 9:1.0 10:1.0 
1.0 0:0.0 1:0.0 2:0.0 3:1.0 4:0.0 5:0.0 6:0.8571428571428572 7:0.0 8:1.0 9:1.0 10:1.0 
1.0 0:1.0 1:0.0 2:0.0 3:0.0 4:0.0 5:0.0 6:0.9 7:0.0 8:0.0 9:0.0 10:0.0 
1.0 0:1.0 1:3.0 2:1.0 3:0.0 4:0.0 5:0.0 6:0.5 7:0.0 8:0.0 9:0.0 10:0.0 
1.0 0:1.0 1:4.0 2:3.0 3:0.0 4:0.0 5:0.0 6:0.3571428571428571 7:0.0 8:1.0 9:1.0 10:1.0 
1.0 0:1.0 1:1.0 2:2.0 3:0.0 4:0.0 5:0.0 6:0.8888888888888888 7:0.0 8:1.0 9:1.0 10:1.0 
1.0 0:1.0 1:4.0 2:3.0 3:0.0 4:0.0 5:0.0 6:0.5 7:0.0 8:1.0 9:1.0 10:1.0 
1.0 0:1.0 1:0.0 2:1.0 3:0.0 4:0.0 5:0.0 6:0.3846153846153846 7:0.0 8:0.0 9:0.0 10:0.0 
0.5262527239185356 0:1.0 1:0.0 2:0.0 3:0.0 4:0.0 5:0.0 6:0.8888888888888888 7:0.0 8:1.0 9:1.0 10:0.0 
1.0 0:0.0 1:0.0 2:0.0 3:0.0 4:1.0 5:0.0 6:0.33333333333333337 7:0.0 8:0.0 9:0.0 10:0.0 
1.0 0:0.0 1:1.0 2:1.0 3:1.0 4:0.0 5:0.0 6:0.8571428571428572 7:0.0 8:1.0 9:1.0 10:1.0 
1.0 0:0.0 1:0.0 2:0.0 3:1.0 4:0.0 5:0.0 6:0.8571428571428572 7:0.0 8:1.0 9:1.0 10:1.0 
1.0 0:1.0 1:0.0 2:0.0 3:0.0 4:0.0 5:0.0 6:0.0 7:0.0 8:1.0 9:1.0 10:0.0 
1.0 0:0.0 1:0.0 2:2.0 3:1.0 4:0.0 5:0.0 6:0.8 7:0.0 8:1.0 9:1.0 10:1.0 
1.0 0:0.0 1:2.0 2:1.0 3:1.0 4:0.0 5:0.0 6:0.33333333333333337 7:0.0 8:1.0 9:1.0 10:1.0 
0.15128822607459155 0:0.0 1:1.0 2:0.0 3:1.0 4:0.0 5:0.0 6:0.8 7:0.0 8:1.0 9:1.0 10:1.0 
1.0 0:1.0 1:4.0 2:3.0 3:0.0 4:0.0 5:0.0 6:0.5 7:0.0 8:0.0 9:0.0 10:0.0 
1.0 0:1.0 1:1.0 2:2.0 3:0.0 4:0.0 5:0.0 6:0.8888888888888888 7:0.0 8:0.0 9:0.0 10:0.0 
1.0 0:0.0 1:13.0 2:2.0 3:1.0 4:0.0 5:0.0 6:0.4444444444444444 7:0.0 8:0.0 9:0.0 10:0.0 
1.0 0:0.0 1:11.0 2:11.0 3:1.0 4:0.0 5:0.0 6:0.8 7:0.0 8:0.0 9:0.0 10:0.0 
1.0 0:0.0 1:1.0 2:1.0 3:1.0 4:0.0 5:0.0 6:0.7777777777777778 7:0.0 8:0.0 9:0.0 10:0.0 
1.0 0:1.0 1:0.0 2:1.0 3:0.0 4:0.0 5:0.0 6:0.4736842105263158 7:0.0 8:0.0 9:0.0 10:0.0 
1.0 0:0.0 1:1.0 2:1.0 3:1.0 4:0.0 5:0.0 6:0.8333333333333334 7:0.0 8:1.0 9:1.0 10:1.0 
1.0 0:0.0 1:0.0 2:0.0 3:1.0 4:0.0 5:0.0 6:0.8333333333333334 7:0.0 8:1.0 9:1.0 10:1.0 
1.0 0:0.0 1:7.0 2:7.0 3:1.0 4:1.0 5:0.0 6:0.8888888888888888 7:0.0 8:1.0 9:1.0 10:1.0 
1.0 0:0.0 1:54.0 2:55.0 3:1.0 4:1.0 5:0.0 6:0.8888888888888888 7:0.0 8:1.0 9:1.0 10:1.0 
0.9659092981255079 0:1.0 1:0.0 2:4.0 3:0.0 4:0.0 5:0.0 6:0.4444444444444444 7:0.0 8:1.0 9:0.0 10:0.0 
1.0 0:0.0 1:3.0 2:2.0 3:1.0 4:1.0 5:0.0 6:0.75 7:0.0 8:1.0 9:1.0 10:1.0 
1.0 0:1.0 1:1.0 2:1.0 3:0.0 4:0.0 5:0.0 6:0.8181818181818181 7:0.0 8:1.0 9:1.0 10:1.0 
0.6057202244102464 0:1.0 1:0.0 2:4.0 3:0.0 4:0.0 5:0.0 6:0.8333333333333334 7:0.0 8:0.0 9:0.0 10:0.0 
1.0 0:0.0 1:2.0 2:2.0 3:1.0 4:1.0 5:0.0 6:0.9285714285714286 7:0.0 8:1.0 9:1.0 10:0.0 
0.7919266858171665 0:0.0 1:0.0 2:1.0 3:1.0 4:1.0 5:0.0 6:0.8421052631578947 7:0.0 8:0.0 9:0.0 10:0.0 
1.0 0:1.0 1:4.0 2:6.0 3:0.0 4:0.0 5:0.0 6:0.9090909090909091 7:0.0 8:1.0 9:1.0 10:0.0 
0.5276682018938524 0:1.0 1:0.0 2:0.0 3:0.0 4:0.0 5:0.0 6:0.9090909090909091 7:1.0 8:1.0 9:1.0 10:1.0 
1.0 0:0.0 1:0.0 2:2.0 3:1.0 4:1.0 5:0.0 6:0.04761904761904767 7:0.0 8:1.0 9:1.0 10:1.0 
1.0 0:1.0 1:0.0 2:0.0 3:0.0 4:0.0 5:0.0 6:0.9090909090909091 7:0.0 8:1.0 9:1.0 10:1.0 
1.0 0:1.0 1:40.0 2:41.0 3:0.0 4:0.0 5:0.0 6:0.875 7:0.0 8:1.0 9:1.0 10:1.0 
1.0 0:0.0 1:4.0 2:7.0 3:1.0 4:0.0 5:0.0 6:0.8 7:0.0 8:1.0 9:0.0 10:0.0 
1.0 0:0.0 1:2.0 2:2.0 3:1.0 4:1.0 5:0.0 6:0.7777777777777778 7:0.0 8:1.0 9:0.0 10:0.0 
1.0 0:1.0 1:4.0 2:0.0 3:0.0 4:0.0 5:0.0 6:0.8888888888888888 7:0.0 8:1.0 9:1.0 10:1.0 
1.0 0:1.0 1:0.0 2:1.0 3:0.0 4:0.0 5:0.0 6:0.8571428571428572 7:0.0 8:0.0 9:0.0 10:0.0 
1.0 0:0.0 1:4.0 2:7.0 3:1.0 4:0.0 5:0.0 6:0.8 7:0.0 8:1.0 9:0.0 10:0.0 
1.0 0:0.0 1:2.0 2:2.0 3:1.0 4:1.0 5:0.0 6:0.7777777777777778 7:0.0 8:1.0 9:0.0 10:0.0 
1.0 0:0.0 1:4.0 2:4.0 3:1.0 4:1.0 5:0.0 6:0.8571428571428572 7:0.0 8:1.0 9:0.0 10:0.0 
1.0 0:0.0 1:1.0 2:1.0 3:1.0 4:1.0 5:0.0 6:0.1428571428571429 7:0.0 8:1.0 9:1.0 10:1.0 
1.0 0:1.0 1:4.0 2:4.0 3:0.0 4:0.0 5:0.0 6:0.8571428571428572 7:0.0 8:0.0 9:0.0 10:0.0 
1.0 0:1.0 1:1.0 2:1.0 3:0.0 4:0.0 5:0.0 6:0.06060606060606055 7:0.0 8:1.0 9:1.0 10:1.0 
1.0 0:1.0 1:1.0 2:2.0 3:0.0 4:0.0 5:0.0 6:0.8888888888888888 7:0.0 8:0.0 9:0.0 10:0.0 
1.0 0:1.0 1:0.0 2:4.0 3:0.0 4:0.0 5:0.0 6:0.4444444444444444 7:0.0 8:1.0 9:0.0 10:0.0 
0.7951925579747022 0:1.0 1:0.0 2:0.0 3:0.0 4:0.0 5:0.0 6:0.0 7:0.0 8:1.0 9:1.0 10:1.0 
1.0 0:0.0 1:1.0 2:1.0 3:1.0 4:0.0 5:0.0 6:0.8888888888888888 7:0.0 8:0.0 9:0.0 10:0.0 
1.0 0:0.0 1:2.0 2:1.0 3:1.0 4:1.0 5:0.0 6:0.07692307692307687 7:0.0 8:1.0 9:1.0 10:1.0 
1.0 0:0.0 1:1.0 2:1.0 3:1.0 4:1.0 5:0.0 6:0.46153846153846156 7:0.0 8:0.0 9:0.0 10:0.0 
1.0 0:1.0 1:8.0 2:3.0 3:0.0 4:0.0 5:0.0 6:0.8571428571428572 7:0.0 8:0.0 9:0.0 10:0.0 
1.0 0:0.0 1:0.0 2:0.0 3:1.0 4:0.0 5:0.0 6:0.8333333333333334 7:0.0 8:1.0 9:1.0 10:1.0 
1.0 0:1.0 1:0.0 2:1.0 3:0.0 4:0.0 5:0.0 6:0.8 7:0.0 8:1.0 9:0.0 10:1.0 
1.0 0:1.0 1:1.0 2:2.0 3:0.0 4:0.0 5:0.0 6:0.8 7:0.0 8:1.0 9:0.0 10:1.0 
0.6030814087158972 0:0.0 1:1.0 2:1.0 3:1.0 4:1.0 5:0.0 6:0.8666666666666667 7:0.0 8:1.0 9:1.0 10:1.0 
1.0 0:1.0 1:0.0 2:1.0 3:0.0 4:0.0 5:0.0 6:0.8571428571428572 7:0.0 8:1.0 9:1.0 10:1.0 
1.0 0:1.0 1:15.0 2:16.0 3:0.0 4:0.0 5:0.0 6:0.8571428571428572 7:0.0 8:1.0 9:1.0 10:1.0 
1.0 0:1.0 1:4.0 2:3.0 3:0.0 4:0.0 5:0.0 6:0.3571428571428571 7:0.0 8:1.0 9:1.0 10:1.0 
0.9631866061064882 0:1.0 1:0.0 2:1.0 3:0.0 4:0.0 5:0.0 6:0.3571428571428571 7:0.0 8:1.0 9:1.0 10:1.0 
1.0 0:1.0 1:0.0 2:0.0 3:0.0 4:0.0 5:0.0 6:0.0 7:0.0 8:1.0 9:1.0 10:1.0 
1.0 0:1.0 1:0.0 2:0.0 3:0.0 4:0.0 5:0.0 6:0.2857142857142857 7:0.0 8:1.0 9:0.0 10:1.0 
1.0 0:1.0 1:0.0 2:0.0 3:0.0 4:0.0 5:0.0 6:0.8888888888888888 7:0.0 8:1.0 9:1.0 10:1.0 
1.0 0:1.0 1:1.0 2:5.0 3:0.0 4:0.0 5:0.0 6:0.8571428571428572 7:0.0 8:1.0 9:1.0 10:1.0 
1.0 0:1.0 1:0.0 2:1.0 3:0.0 4:0.0 5:0.0 6:0.3846153846153846 7:0.0 8:1.0 9:1.0 10:1.0 
1.0 0:1.0 1:2.0 2:2.0 3:0.0 4:0.0 5:0.0 6:0.8333333333333334 7:0.0 8:0.0 9:0.0 10:0.0 
1.0 0:1.0 1:3.0 2:3.0 3:0.0 4:0.0 5:0.0 6:0.8333333333333334 7:0.0 8:0.0 9:0.0 10:0.0 
1.0 0:1.0 1:1.0 2:1.0 3:0.0 4:0.0 5:0.0 6:0.46153846153846156 7:0.0 8:1.0 9:1.0 10:0.0 
1.0 0:1.0 1:1.0 2:1.0 3:0.0 4:0.0 5:0.0 6:0.8666666666666667 7:0.0 8:1.0 9:1.0 10:1.0 
1.0 0:0.0 1:1063.0 2:1068.0 3:1.0 4:1.0 5:0.0 6:0.8461538461538461 7:0.0 8:1.0 9:1.0 10:1.0 
1.0 0:0.0 1:1.0 2:1.0 3:1.0 4:1.0 5:0.0 6:0.1428571428571429 7:0.0 8:0.0 9:0.0 10:0.0 
1.0 0:0.0 1:1.0 2:1.0 3:1.0 4:0.0 5:0.0 6:0.8888888888888888 7:0.0 8:0.0 9:0.0 10:0.0 
0.13448646545830437 0:0.0 1:0.0 2:0.0 3:1.0 4:0.0 5:0.0 6:0.8888888888888888 7:0.0 8:0.0 9:0.0 10:0.0 
1.0 0:0.0 1:2.0 2:2.0 3:1.0 4:1.0 5:0.0 6:0.9 7:0.0 8:1.0 9:1.0 10:1.0 
1.0 0:0.0 1:1.0 2:1.0 3:1.0 4:1.0 5:0.0 6:0.2857142857142857 7:0.0 8:1.0 9:1.0 10:1.0 
1.0 0:0.0 1:1.0 2:45.0 3:1.0 4:1.0 5:0.0 6:0.7777777777777778 7:0.0 8:0.0 9:0.0 10:0.0 
1.0 0:0.0 1:152.0 2:152.0 3:1.0 4:1.0 5:0.0 6:0.7777777777777778 7:0.0 8:0.0 9:0.0 10:0.0 
1.0 0:0.0 1:0.0 2:21.0 3:1.0 4:1.0 5:0.0 6:0.2941176470588235 7:0.0 8:0.0 9:0.0 10:0.0 
1.0 0:1.0 1:0.0 2:0.0 3:0.0 4:0.0 5:0.0 6:0.9 7:0.0 8:1.0 9:1.0 10:1.0 
1.0 0:1.0 1:0.0 2:1.0 3:0.0 4:0.0 5:0.0 6:0.3846153846153846 7:0.0 8:0.0 9:0.0 10:0.0 
0.9676573426087844 0:1.0 1:0.0 2:0.0 3:0.0 4:0.0 5:0.0 6:0.8888888888888888 7:0.0 8:1.0 9:1.0 10:1.0 
1.0 0:1.0 1:5.0 2:5.0 3:0.0 4:0.0 5:0.0 6:0.8181818181818181 7:0.0 8:1.0 9:1.0 10:1.0 
1.0 0:1.0 1:4.0 2:4.0 3:0.0 4:0.0 5:0.0 6:0.8181818181818181 7:0.0 8:1.0 9:1.0 10:1.0 
1.0 0:0.0 1:1.0 2:0.0 3:1.0 4:0.0 5:0.0 6:0.8888888888888888 7:0.0 8:1.0 9:1.0 10:1.0 
1.0 0:1.0 1:2.0 2:0.0 3:0.0 4:0.0 5:0.0 6:0.8 7:0.0 8:1.0 9:1.0 10:1.0 
1.0 0:1.0 1:1.0 2:9.0 3:0.0 4:0.0 5:0.0 6:0.8 7:0.0 8:1.0 9:1.0 10:1.0 
1.0 0:1.0 1:0.0 2:6.0 3:0.0 4:0.0 5:0.0 6:0.8 7:0.0 8:1.0 9:1.0 10:1.0 
1.0 0:1.0 1:28.0 2:32.0 3:0.0 4:0.0 5:0.0 6:0.8 7:0.0 8:1.0 9:1.0 10:1.0 
0.18357870222187642 0:0.0 1:2.0 2:0.0 3:1.0 4:1.0 5:0.0 6:0.7777777777777778 7:0.0 8:0.0 9:0.0 10:0.0 
0.5381290744672642 0:0.0 1:1.0 2:15.0 3:1.0 4:1.0 5:0.0 6:0.7777777777777778 7:0.0 8:0.0 9:0.0 10:0.0 
1.0 0:0.0 1:47.0 2:13.0 3:1.0 4:1.0 5:0.0 6:0.7777777777777778 7:0.0 8:0.0 9:0.0 10:0.0 
1.0 0:0.0 1:1.0 2:1.0 3:1.0 4:1.0 5:0.0 6:0.9 7:0.0 8:1.0 9:1.0 10:0.0 
1.0 0:0.0 1:5.0 2:1.0 3:1.0 4:1.0 5:0.0 6:0.8333333333333334 7:0.0 8:1.0 9:1.0 10:0.0 
1.0 0:1.0 1:1.0 2:2.0 3:0.0 4:0.0 5:0.0 6:0.8888888888888888 7:0.0 8:0.0 9:0.0 10:0.0 
1.0 0:1.0 1:4.0 2:3.0 3:0.0 4:0.0 5:0.0 6:0.5 7:0.0 8:0.0 9:0.0 10:0.0 
1.0 0:1.0 1:1.0 2:1.0 3:0.0 4:0.0 5:0.0 6:0.875 7:0.0 8:0.0 9:0.0 10:0.0 
1.0 0:1.0 1:4.0 2:1.0 3:0.0 4:0.0 5:0.0 6:0.30000000000000004 7:0.0 8:1.0 9:1.0 10:1.0 
1.0 0:1.0 1:0.0 2:0.0 3:0.0 4:0.0 5:0.0 6:0.9 7:0.0 8:1.0 9:1.0 10:1.0 
1.0 0:1.0 1:3.0 2:5.0 3:0.0 4:0.0 5:0.0 6:0.9 7:0.0 8:1.0 9:1.0 10:1.0 
1.0 0:1.0 1:2.0 2:2.0 3:0.0 4:0.0 5:0.0 6:0.8333333333333334 7:0.0 8:1.0 9:1.0 10:1.0 
1.0 0:0.0 1:0.0 2:2.0 3:1.0 4:1.0 5:0.0 6:0.04761904761904767 7:0.0 8:1.0 9:1.0 10:1.0 
0.3883701958222545 0:1.0 1:0.0 2:0.0 3:0.0 4:0.0 5:0.0 6:0.11111111111111116 7:1.0 8:1.0 9:1.0 10:0.0 
1.0 0:1.0 1:4.0 2:3.0 3:0.0 4:0.0 5:0.0 6:0.5 7:0.0 8:1.0 9:0.0 10:0.0 
1.0 0:1.0 1:1.0 2:2.0 3:0.0 4:0.0 5:0.0 6:0.8888888888888888 7:0.0 8:1.0 9:0.0 10:0.0 
0.8456380967055094 0:0.0 1:1.0 2:3.0 3:1.0 4:1.0 5:0.0 6:0.875 7:0.0 8:1.0 9:1.0 10:1.0 
1.0 0:0.0 1:0.0 2:1.0 3:1.0 4:1.0 5:0.0 6:0.125 7:0.0 8:0.0 9:0.0 10:0.0 
0.13987103076646787 0:1.0 1:0.0 2:3.0 3:0.0 4:0.0 5:0.0 6:0.8 7:0.0 8:0.0 9:0.0 10:0.0 
1.0 0:1.0 1:21.0 2:17.0 3:0.0 4:0.0 5:0.0 6:0.4375 7:0.0 8:0.0 9:0.0 10:0.0 
1.0 0:0.0 1:1063.0 2:1068.0 3:1.0 4:1.0 5:0.0 6:0.8461538461538461 7:0.0 8:0.0 9:0.0 10:0.0 
0.4698197732223849 0:0.0 1:0.0 2:2.0 3:0.0 4:1.0 5:0.0 6:0.7777777777777778 7:0.0 8:1.0 9:0.0 10:0.0 
1.0 0:0.0 1:5.0 2:5.0 3:0.0 4:0.0 5:0.0 6:0.7777777777777778 7:0.0 8:1.0 9:0.0 10:0.0 
1.0 0:0.0 1:1.0 2:0.0 3:0.0 4:1.0 5:0.0 6:0.17948717948717952 7:0.0 8:1.0 9:0.0 10:0.0 
1.0 0:0.0 1:4.0 2:1.0 3:0.0 4:1.0 5:0.0 6:0.4375 7:0.0 8:1.0 9:0.0 10:0.0 
1.0 0:0.0 1:4.0 2:3.0 3:0.0 4:1.0 5:0.0 6:0.5 7:0.0 8:1.0 9:0.0 10:0.0 
1.0 0:0.0 1:1.0 2:2.0 3:0.0 4:1.0 5:0.0 6:0.8888888888888888 7:0.0 8:1.0 9:0.0 10:0.0 
1.0 0:1.0 1:0.0 2:0.0 3:0.0 4:0.0 5:0.0 6:0.9 7:0.0 8:0.0 9:0.0 10:0.0 
1.0 0:1.0 1:1.0 2:1.0 3:0.0 4:0.0 5:0.0 6:0.8333333333333334 7:0.0 8:1.0 9:1.0 10:1.0 
1.0 0:1.0 1:19.0 2:5.0 3:0.0 4:0.0 5:0.0 6:0.26315789473684215 7:0.0 8:1.0 9:1.0 10:1.0 
1.0 0:0.0 1:0.0 2:3.0 3:1.0 4:1.0 5:0.0 6:0.75 7:0.0 8:1.0 9:1.0 10:1.0 
1.0 0:1.0 1:1.0 2:1.0 3:0.0 4:0.0 5:0.0 6:0.875 7:0.0 8:0.0 9:0.0 10:0.0 
1.0 0:1.0 1:0.0 2:0.0 3:0.0 4:0.0 5:0.0 6:0.08333333333333337 7:0.0 8:0.0 9:0.0 10:0.0 
1.0 0:0.0 1:0.0 2:0.0 3:1.0 4:0.0 5:0.0 6:0.125 7:0.0 8:1.0 9:1.0 10:0.0 
1.0 0:0.0 1:2.0 2:1.0 3:1.0 4:0.0 5:0.0 6:0.8888888888888888 7:0.0 8:1.0 9:1.0 10:1.0 
1.0 0:0.0 1:3.0 2:13.0 3:1.0 4:0.0 5:0.0 6:0.8888888888888888 7:0.0 8:1.0 9:1.0 10:1.0 
1.0 0:1.0 1:1.0 2:1.0 3:0.0 4:0.0 5:0.0 6:0.75 7:0.0 8:0.0 9:0.0 10:0.0 
1.0 0:0.0 1:4.0 2:5.0 3:1.0 4:1.0 5:0.0 6:0.8571428571428572 7:0.0 8:1.0 9:1.0 10:1.0 
0.0037183071445651317 0:0.0 1:0.0 2:0.0 3:1.0 4:0.0 5:0.0 6:0.8571428571428572 7:0.0 8:1.0 9:1.0 10:0.0 
0.14510763954636133 0:1.0 1:1.0 2:0.0 3:0.0 4:0.0 5:0.0 6:0.8333333333333334 7:0.0 8:0.0 9:0.0 10:0.0 
1.0 0:1.0 1:0.0 2:1.0 3:0.0 4:0.0 5:0.0 6:0.3571428571428571 7:0.0 8:0.0 9:0.0 10:0.0 
1.0 0:1.0 1:4.0 2:3.0 3:0.0 4:0.0 5:0.0 6:0.3571428571428571 7:0.0 8:0.0 9:0.0 10:0.0 
1.0 0:1.0 1:1.0 2:4.0 3:0.0 4:0.0 5:0.0 6:0.4 7:0.0 8:1.0 9:1.0 10:1.0 
1.0 0:1.0 1:0.0 2:0.0 3:0.0 4:0.0 5:0.0 6:0.9166666666666666 7:0.0 8:1.0 9:1.0 10:1.0 
1.0 0:1.0 1:0.0 2:1.0 3:0.0 4:0.0 5:0.0 6:0.3846153846153846 7:0.0 8:0.0 9:0.0 10:0.0 
1.0 0:1.0 1:1.0 2:0.0 3:0.0 4:0.0 5:0.0 6:0.8333333333333334 7:0.0 8:0.0 9:0.0 10:0.0 
1.0 0:0.0 1:1.0 2:0.0 3:1.0 4:0.0 5:0.0 6:0.8888888888888888 7:0.0 8:1.0 9:1.0 10:1.0 
0.8348913163078056 0:0.0 1:0.0 2:1.0 3:1.0 4:0.0 5:0.0 6:0.8888888888888888 7:0.0 8:1.0 9:1.0 10:1.0 
0.21658650038616098 0:1.0 1:2.0 2:0.0 3:0.0 4:0.0 5:0.0 6:0.8 7:0.0 8:1.0 9:0.0 10:0.0 
0.13305966423864352 0:1.0 1:1.0 2:9.0 3:0.0 4:0.0 5:0.0 6:0.8 7:0.0 8:1.0 9:0.0 10:0.0 
0.08512035799968473 0:1.0 1:0.0 2:6.0 3:0.0 4:0.0 5:0.0 6:0.8 7:0.0 8:1.0 9:0.0 10:0.0 
1.0 0:1.0 1:1.0 2:1.0 3:0.0 4:0.0 5:0.0 6:0.875 7:0.0 8:0.0 9:0.0 10:0.0 
1.0 0:1.0 1:0.0 2:0.0 3:0.0 4:0.0 5:0.0 6:0.875 7:0.0 8:0.0 9:0.0 10:0.0 
1.0 0:1.0 1:1.0 2:1.0 3:0.0 4:0.0 5:0.0 6:0.875 7:0.0 8:0.0 9:0.0 10:0.0 
0.09010706759888992 0:0.0 1:0.0 2:0.0 3:1.0 4:1.0 5:0.0 6:0.052631578947368474 7:1.0 8:1.0 9:1.0 10:1.0 
1.0 0:0.0 1:1.0 2:41.0 3:1.0 4:1.0 5:0.0 6:0.8461538461538461 7:0.0 8:1.0 9:1.0 10:1.0 
1.0 0:1.0 1:0.0 2:1.0 3:0.0 4:0.0 5:0.0 6:0.3529411764705882 7:0.0 8:1.0 9:1.0 10:0.0 
1.0 0:1.0 1:8.0 2:3.0 3:0.0 4:0.0 5:0.0 6:0.8571428571428572 7:0.0 8:0.0 9:0.0 10:0.0 
1.0 0:1.0 1:8.0 2:3.0 3:0.0 4:0.0 5:0.0 6:0.8571428571428572 7:0.0 8:1.0 9:1.0 10:1.0 
1.0 0:0.0 1:1.0 2:1.0 3:1.0 4:0.0 5:0.0 6:0.8571428571428572 7:0.0 8:1.0 9:1.0 10:1.0 
1.0 0:0.0 1:0.0 2:0.0 3:1.0 4:0.0 5:0.0 6:0.8571428571428572 7:0.0 8:1.0 9:1.0 10:1.0 
1.0 0:0.0 1:168.0 2:168.0 3:1.0 4:1.0 5:0.0 6:0.8333333333333334 7:0.0 8:1.0 9:1.0 10:1.0 
0.8160530735932363 0:0.0 1:0.0 2:0.0 3:1.0 4:1.0 5:0.0 6:0.9 7:0.0 8:1.0 9:1.0 10:1.0 
1.0 0:0.0 1:3.0 2:2.0 3:1.0 4:1.0 5:0.0 6:0.8333333333333334 7:0.0 8:0.0 9:0.0 10:0.0 
1.0 0:0.0 1:1.0 2:1.0 3:1.0 4:1.0 5:0.0 6:0.8888888888888888 7:0.0 8:1.0 9:1.0 10:1.0 
1.0 0:1.0 1:0.0 2:1.0 3:0.0 4:0.0 5:0.0 6:0.3571428571428571 7:0.0 8:1.0 9:1.0 10:1.0 
1.0 0:1.0 1:4.0 2:3.0 3:0.0 4:0.0 5:0.0 6:0.3571428571428571 7:0.0 8:1.0 9:1.0 10:1.0 
1.0 0:1.0 1:1.0 2:2.0 3:0.0 4:0.0 5:0.0 6:0.8888888888888888 7:0.0 8:0.0 9:0.0 10:0.0 
1.0 0:1.0 1:4.0 2:3.0 3:0.0 4:0.0 5:0.0 6:0.5 7:0.0 8:0.0 9:0.0 10:0.0 
1.0 0:0.0 1:1.0 2:1.0 3:1.0 4:0.0 5:0.0 6:0.8571428571428572 7:0.0 8:1.0 9:1.0 10:1.0 
1.0 0:0.0 1:0.0 2:0.0 3:1.0 4:0.0 5:0.0 6:0.8571428571428572 7:0.0 8:1.0 9:1.0 10:1.0 
1.0 0:1.0 1:2.0 2:2.0 3:0.0 4:0.0 5:0.0 6:0.8333333333333334 7:0.0 8:1.0 9:1.0 10:1.0 
1.0 0:0.0 1:1.0 2:1.0 3:1.0 4:1.0 5:0.0 6:0.5714285714285714 7:0.0 8:1.0 9:1.0 10:0.0 
1.0 0:0.0 1:1.0 2:1.0 3:1.0 4:1.0 5:0.0 6:0.875 7:0.0 8:1.0 9:1.0 10:0.0 
1.0 0:1.0 1:1.0 2:1.0 3:0.0 4:0.0 5:0.0 6:0.38888888888888884 7:0.0 8:1.0 9:1.0 10:1.0 
1.0 0:1.0 1:10.0 2:3.0 3:0.0 4:0.0 5:0.0 6:0.38888888888888884 7:0.0 8:1.0 9:1.0 10:1.0 
0.7188980784755563 0:0.0 1:1.0 2:0.0 3:1.0 4:0.0 5:0.0 6:0.8888888888888888 7:0.0 8:1.0 9:1.0 10:1.0 
0.8943000749737273 0:0.0 1:0.0 2:1.0 3:1.0 4:0.0 5:0.0 6:0.8888888888888888 7:0.0 8:1.0 9:1.0 10:1.0 
0.24689155860451198 0:1.0 1:0.0 2:0.0 3:0.0 4:0.0 5:0.0 6:0.8333333333333334 7:0.0 8:1.0 9:0.0 10:0.0 
0.5864530598500283 0:1.0 1:1.0 2:0.0 3:0.0 4:0.0 5:0.0 6:0.09090909090909094 7:0.0 8:0.0 9:0.0 10:0.0 
1.0 0:1.0 1:0.0 2:0.0 3:0.0 4:0.0 5:0.0 6:0.0 7:0.0 8:1.0 9:1.0 10:1.0 
0.9376491297546866 0:0.0 1:1.0 2:1.0 3:1.0 4:1.0 5:0.0 6:0.8333333333333334 7:0.0 8:0.0 9:0.0 10:0.0 
1.0 0:1.0 1:0.0 2:1.0 3:0.0 4:0.0 5:0.0 6:0.8571428571428572 7:0.0 8:1.0 9:1.0 10:1.0 
1.0 0:1.0 1:15.0 2:16.0 3:0.0 4:0.0 5:0.0 6:0.8571428571428572 7:0.0 8:1.0 9:1.0 10:1.0 
1.0 0:1.0 1:0.0 2:0.0 3:0.0 4:0.0 5:0.0 6:0.8571428571428572 7:0.0 8:1.0 9:0.0 10:0.0 
1.0 0:1.0 1:8.0 2:3.0 3:0.0 4:0.0 5:0.0 6:0.8571428571428572 7:0.0 8:1.0 9:0.0 10:0.0 
1.0 0:0.0 1:0.0 2:2.0 3:1.0 4:0.0 5:0.0 6:0.8888888888888888 7:0.0 8:0.0 9:0.0 10:0.0 
1.0 0:0.0 1:1.0 2:3.0 3:1.0 4:0.0 5:0.0 6:0.8888888888888888 7:0.0 8:0.0 9:0.0 10:0.0 
1.0 0:1.0 1:1.0 2:1.0 3:0.0 4:0.0 5:0.0 6:0.10810810810810811 7:0.0 8:1.0 9:0.0 10:1.0 
1.0 0:0.0 1:1.0 2:1.0 3:1.0 4:0.0 5:0.0 6:0.5714285714285714 7:0.0 8:0.0 9:0.0 10:0.0 
1.0 0:1.0 1:0.0 2:57.0 3:0.0 4:0.0 5:0.0 6:0.7 7:0.0 8:0.0 9:0.0 10:0.0 
1.0 0:1.0 1:31.0 2:100.0 3:0.0 4:0.0 5:0.0 6:0.7 7:0.0 8:0.0 9:0.0 10:0.0 
1.0 0:0.0 1:8.0 2:9.0 3:1.0 4:1.0 5:0.0 6:0.8571428571428572 7:0.0 8:1.0 9:1.0 10:1.0 
1.0 0:1.0 1:1.0 2:0.0 3:0.0 4:0.0 5:0.0 6:0.09090909090909094 7:0.0 8:0.0 9:0.0 10:0.0 
0.22623373795289048 0:0.0 1:0.0 2:0.0 3:1.0 4:1.0 5:0.0 6:0.875 7:1.0 8:0.0 9:0.0 10:0.0 
1.0 0:1.0 1:1.0 2:1.0 3:0.0 4:0.0 5:0.0 6:0.8260869565217391 7:0.0 8:1.0 9:1.0 10:1.0 
0.3772125896876077 0:0.0 1:5.0 2:1.0 3:1.0 4:1.0 5:0.0 6:0.33333333333333337 7:0.0 8:1.0 9:0.0 10:0.0 
1.0 0:1.0 1:0.0 2:1.0 3:0.0 4:0.0 5:0.0 6:0.8888888888888888 7:0.0 8:1.0 9:1.0 10:1.0 
1.0 0:1.0 1:1.0 2:2.0 3:0.0 4:0.0 5:0.0 6:0.8888888888888888 7:0.0 8:1.0 9:1.0 10:1.0 
1.0 0:1.0 1:4.0 2:3.0 3:0.0 4:0.0 5:0.0 6:0.5 7:0.0 8:1.0 9:1.0 10:1.0 
1.0 0:1.0 1:0.0 2:1.0 3:0.0 4:0.0 5:0.0 6:0.25 7:0.0 8:1.0 9:1.0 10:0.0 
1.0 0:1.0 1:10.0 2:3.0 3:0.0 4:0.0 5:0.0 6:0.5263157894736843 7:0.0 8:1.0 9:1.0 10:1.0 
1.0 0:1.0 1:0.0 2:0.0 3:0.0 4:0.0 5:0.0 6:0.9090909090909091 7:0.0 8:1.0 9:1.0 10:1.0 
0.1854191610715847 0:0.0 1:0.0 2:0.0 3:1.0 4:0.0 5:0.0 6:0.88 7:1.0 8:0.0 9:0.0 10:0.0 
1.0 0:0.0 1:1.0 2:0.0 3:1.0 4:0.0 5:0.0 6:0.8 7:0.0 8:1.0 9:1.0 10:1.0 
1.0 0:0.0 1:2.0 2:1.0 3:1.0 4:0.0 5:0.0 6:0.33333333333333337 7:0.0 8:1.0 9:1.0 10:1.0 
0.972765551112066 0:0.0 1:0.0 2:2.0 3:1.0 4:0.0 5:0.0 6:0.8 7:0.0 8:1.0 9:1.0 10:1.0 
1.0 0:0.0 1:1.0 2:1.0 3:0.0 4:0.0 5:0.0 6:0.5 7:0.0 8:1.0 9:0.0 10:0.0 
1.0 0:0.0 1:0.0 2:0.0 3:0.0 4:0.0 5:0.0 6:0.24 7:0.0 8:1.0 9:0.0 10:0.0 
1.0 0:0.0 1:2.0 2:0.0 3:0.0 4:0.0 5:0.0 6:0.5 7:0.0 8:1.0 9:1.0 10:1.0 
1.0 0:0.0 1:1.0 2:3.0 3:0.0 4:0.0 5:0.0 6:0.23076923076923073 7:0.0 8:1.0 9:1.0 10:1.0 
0.9681619842420172 0:0.0 1:5.0 2:1.0 3:1.0 4:1.0 5:0.0 6:0.33333333333333337 7:0.0 8:1.0 9:0.0 10:0.0 
1.0 0:1.0 1:4.0 2:0.0 3:0.0 4:0.0 5:0.0 6:0.8888888888888888 7:0.0 8:1.0 9:1.0 10:1.0 
1.0 0:0.0 1:0.0 2:1.0 3:1.0 4:1.0 5:0.0 6:0.08333333333333337 7:0.0 8:1.0 9:1.0 10:0.0 
1.0 0:0.0 1:27.0 2:23.0 3:1.0 4:1.0 5:0.0 6:0.30000000000000004 7:0.0 8:1.0 9:1.0 10:0.0 
0.16723857881781767 0:0.0 1:0.0 2:0.0 3:1.0 4:1.0 5:0.0 6:0.8571428571428572 7:1.0 8:1.0 9:1.0 10:0.0 
1.0 0:0.0 1:0.0 2:24.0 3:1.0 4:1.0 5:0.0 6:0.8333333333333334 7:0.0 8:0.0 9:0.0 10:0.0 
1.0 0:1.0 1:0.0 2:0.0 3:0.0 4:0.0 5:0.0 6:0.8888888888888888 7:0.0 8:1.0 9:1.0 10:0.0 
1.0 0:0.0 1:0.0 2:24.0 3:1.0 4:1.0 5:0.0 6:0.8333333333333334 7:0.0 8:0.0 9:0.0 10:0.0 
1.0 0:0.0 1:0.0 2:0.0 3:1.0 4:0.0 5:0.0 6:0.875 7:0.0 8:1.0 9:1.0 10:0.0 
0.014491182641739844 0:1.0 1:0.0 2:0.0 3:0.0 4:0.0 5:0.0 6:0.09090909090909094 7:0.0 8:1.0 9:1.0 10:0.0 
1.0 0:1.0 1:0.0 2:2.0 3:0.0 4:0.0 5:0.0 6:0.8461538461538461 7:0.0 8:1.0 9:0.0 10:0.0 
1.0 0:0.0 1:0.0 2:0.0 3:1.0 4:0.0 5:0.0 6:0.8571428571428572 7:0.0 8:1.0 9:1.0 10:1.0 
1.0 0:0.0 1:0.0 2:0.0 3:1.0 4:0.0 5:0.0 6:0.09999999999999998 7:0.0 8:0.0 9:0.0 10:0.0 
1.0 0:0.0 1:0.0 2:3.0 3:1.0 4:1.0 5:0.0 6:0.8333333333333334 7:0.0 8:0.0 9:0.0 10:0.0 
1.0 0:1.0 1:3.0 2:5.0 3:0.0 4:0.0 5:0.0 6:0.9 7:0.0 8:1.0 9:1.0 10:1.0 
1.0 0:1.0 1:4.0 2:1.0 3:0.0 4:0.0 5:0.0 6:0.30000000000000004 7:0.0 8:1.0 9:1.0 10:1.0 
1.0 0:1.0 1:0.0 2:0.0 3:0.0 4:0.0 5:0.0 6:0.9 7:0.0 8:1.0 9:1.0 10:1.0 
0.9790086947761926 0:1.0 1:0.0 2:0.0 3:0.0 4:0.0 5:0.0 6:0.8333333333333334 7:0.0 8:1.0 9:0.0 10:1.0 
1.0 0:1.0 1:1.0 2:1.0 3:0.0 4:0.0 5:0.0 6:0.8571428571428572 7:0.0 8:1.0 9:1.0 10:0.0 
1.0 0:1.0 1:0.0 2:3.0 3:0.0 4:0.0 5:0.0 6:0.8 7:0.0 8:1.0 9:1.0 10:0.0 
1.0 0:1.0 1:112.0 2:112.0 3:0.0 4:0.0 5:0.0 6:0.8571428571428572 7:0.0 8:1.0 9:1.0 10:0.0 
0.914670548535021 0:1.0 1:0.0 2:4.0 3:0.0 4:0.0 5:0.0 6:0.8333333333333334 7:0.0 8:0.0 9:0.0 10:0.0 
1.0 0:0.0 1:0.0 2:3.0 3:1.0 4:1.0 5:0.0 6:0.75 7:0.0 8:1.0 9:1.0 10:1.0 
1.0 0:1.0 1:2.0 2:0.0 3:0.0 4:0.0 5:0.0 6:0.8 7:0.0 8:1.0 9:0.0 10:0.0 
1.0 0:1.0 1:1.0 2:9.0 3:0.0 4:0.0 5:0.0 6:0.8 7:0.0 8:1.0 9:0.0 10:0.0 
1.0 0:1.0 1:0.0 2:6.0 3:0.0 4:0.0 5:0.0 6:0.8 7:0.0 8:1.0 9:0.0 10:0.0 
1.0 0:1.0 1:0.0 2:0.0 3:0.0 4:0.0 5:0.0 6:0.875 7:0.0 8:0.0 9:0.0 10:0.0 
1.0 0:0.0 1:1.0 2:3.0 3:1.0 4:1.0 5:0.0 6:0.875 7:0.0 8:1.0 9:1.0 10:1.0 
0.9962734877336915 0:0.0 1:2.0 2:0.0 3:1.0 4:1.0 5:0.0 6:0.7777777777777778 7:0.0 8:0.0 9:0.0 10:0.0 
1.0 0:0.0 1:1.0 2:15.0 3:1.0 4:1.0 5:0.0 6:0.7777777777777778 7:0.0 8:0.0 9:0.0 10:0.0 
0.3443677273894864 0:0.0 1:0.0 2:0.0 3:1.0 4:1.0 5:0.0 6:0.052631578947368474 7:1.0 8:0.0 9:0.0 10:0.0 
1.0 0:1.0 1:1.0 2:0.0 3:0.0 4:0.0 5:0.0 6:0.09090909090909094 7:0.0 8:0.0 9:0.0 10:0.0 
1.0 0:1.0 1:1.0 2:1.0 3:0.0 4:0.0 5:0.0 6:0.8260869565217391 7:0.0 8:1.0 9:1.0 10:1.0 
0.5006279546918153 0:0.0 1:0.0 2:1.0 3:1.0 4:0.0 5:0.0 6:0.875 7:0.0 8:1.0 9:1.0 10:0.0 
0.12897873175561822 0:0.0 1:1.0 2:0.0 3:1.0 4:0.0 5:0.0 6:0.875 7:0.0 8:1.0 9:1.0 10:0.0 
1.0 0:0.0 1:1.0 2:1.0 3:1.0 4:0.0 5:0.0 6:0.8571428571428572 7:0.0 8:1.0 9:0.0 10:0.0 
1.0 0:0.0 1:1.0 2:1.0 3:1.0 4:1.0 5:0.0 6:0.46153846153846156 7:0.0 8:0.0 9:0.0 10:0.0 
1.0 0:0.0 1:3.0 2:0.0 3:1.0 4:0.0 5:0.0 6:0.8 7:0.0 8:0.0 9:0.0 10:0.0 
1.0 0:0.0 1:1.0 2:1.0 3:1.0 4:0.0 5:0.0 6:0.1428571428571429 7:0.0 8:0.0 9:0.0 10:0.0 
1.0 0:0.0 1:2.0 2:3.0 3:1.0 4:0.0 5:0.0 6:0.15000000000000002 7:0.0 8:1.0 9:1.0 10:1.0 
1.0 0:0.0 1:1.0 2:2.0 3:1.0 4:0.0 5:0.0 6:0.5294117647058824 7:0.0 8:1.0 9:1.0 10:1.0 
0.8615160772703996 0:0.0 1:5.0 2:1.0 3:1.0 4:1.0 5:0.0 6:0.9 7:0.0 8:0.0 9:0.0 10:0.0 
1.0 0:0.0 1:0.0 2:0.0 3:1.0 4:1.0 5:0.0 6:0.9333333333333333 7:0.0 8:0.0 9:0.0 10:0.0 
1.0 0:1.0 1:1.0 2:1.0 3:0.0 4:0.0 5:0.0 6:0.8888888888888888 7:0.0 8:0.0 9:0.0 10:0.0 
1.0 0:1.0 1:1.0 2:1.0 3:0.0 4:0.0 5:0.0 6:0.4545454545454546 7:0.0 8:1.0 9:1.0 10:1.0 
0.16520474492360868 0:1.0 1:1.0 2:0.0 3:0.0 4:0.0 5:0.0 6:0.8 7:0.0 8:1.0 9:1.0 10:1.0 
0.8980211574131644 0:0.0 1:0.0 2:0.0 3:0.0 4:1.0 5:0.0 6:0.368421052631579 7:0.0 8:1.0 9:0.0 10:0.0 
0.3670925244704263 0:0.0 1:0.0 2:0.0 3:0.0 4:1.0 5:0.0 6:0.3529411764705882 7:1.0 8:1.0 9:0.0 10:0.0 
1.0 0:0.0 1:0.0 2:2.0 3:0.0 4:1.0 5:0.0 6:0.7777777777777778 7:0.0 8:1.0 9:0.0 10:0.0 
1.0 0:0.0 1:5.0 2:5.0 3:0.0 4:0.0 5:0.0 6:0.7777777777777778 7:0.0 8:1.0 9:0.0 10:0.0 
1.0 0:0.0 1:1.0 2:0.0 3:0.0 4:1.0 5:0.0 6:0.17948717948717952 7:0.0 8:1.0 9:0.0 10:0.0 
1.0 0:0.0 1:4.0 2:1.0 3:0.0 4:1.0 5:0.0 6:0.4375 7:0.0 8:1.0 9:0.0 10:0.0 
0.2393551545556351 0:0.0 1:0.0 2:0.0 3:0.0 4:1.0 5:0.0 6:0.8 7:0.0 8:1.0 9:0.0 10:0.0 
1.0 0:0.0 1:4.0 2:3.0 3:0.0 4:1.0 5:0.0 6:0.5 7:0.0 8:1.0 9:0.0 10:0.0 
1.0 0:0.0 1:1.0 2:2.0 3:0.0 4:1.0 5:0.0 6:0.8888888888888888 7:0.0 8:1.0 9:0.0 10:0.0 
0.9035547424100919 0:0.0 1:0.0 2:0.0 3:1.0 4:1.0 5:0.0 6:0.9 7:0.0 8:1.0 9:1.0 10:1.0 
1.0 0:0.0 1:1.0 2:1.0 3:1.0 4:1.0 5:0.0 6:0.2857142857142857 7:0.0 8:1.0 9:1.0 10:1.0 
1.0 0:0.0 1:0.0 2:1.0 3:1.0 4:0.0 5:0.0 6:0.875 7:0.0 8:1.0 9:1.0 10:0.0 
1.0 0:0.0 1:1.0 2:0.0 3:1.0 4:0.0 5:0.0 6:0.875 7:0.0 8:1.0 9:1.0 10:0.0 
1.0 0:0.0 1:1.0 2:0.0 3:1.0 4:0.0 5:0.0 6:0.875 7:0.0 8:1.0 9:1.0 10:0.0 
1.0 0:0.0 1:0.0 2:1.0 3:1.0 4:0.0 5:0.0 6:0.875 7:0.0 8:1.0 9:1.0 10:0.0 
1.0 0:1.0 1:1.0 2:2.0 3:0.0 4:0.0 5:0.0 6:0.8888888888888888 7:0.0 8:0.0 9:0.0 10:0.0 
1.0 0:1.0 1:4.0 2:3.0 3:0.0 4:0.0 5:0.0 6:0.5 7:0.0 8:0.0 9:0.0 10:0.0 
1.0 0:1.0 1:0.0 2:1.0 3:0.0 4:0.0 5:0.0 6:0.5263157894736843 7:0.0 8:0.0 9:0.0 10:0.0 
1.0 0:0.0 1:4.0 2:3.0 3:1.0 4:1.0 5:0.0 6:0.3571428571428571 7:0.0 8:1.0 9:0.0 10:0.0 
1.0 0:0.0 1:2.0 2:2.0 3:1.0 4:1.0 5:0.0 6:0.8571428571428572 7:0.0 8:1.0 9:0.0 10:0.0 
1.0 0:0.0 1:1.0 2:1.0 3:1.0 4:0.0 5:0.0 6:0.8571428571428572 7:0.0 8:1.0 9:0.0 10:0.0 
1.0 0:0.0 1:4.0 2:5.0 3:1.0 4:1.0 5:0.0 6:0.8571428571428572 7:0.0 8:1.0 9:1.0 10:1.0 
1.0 0:1.0 1:2.0 2:1.0 3:0.0 4:0.0 5:0.0 6:0.09090909090909094 7:0.0 8:0.0 9:0.0 10:0.0 
1.0 0:1.0 1:0.0 2:0.0 3:0.0 4:0.0 5:0.0 6:0.0 7:0.0 8:1.0 9:1.0 10:1.0 
1.0 0:0.0 1:1.0 2:1.0 3:1.0 4:1.0 5:0.0 6:0.8571428571428572 7:0.0 8:1.0 9:1.0 10:0.0 
1.0 0:0.0 1:1.0 2:1.0 3:1.0 4:1.0 5:0.0 6:0.0 7:0.0 8:1.0 9:1.0 10:0.0 
1.0 0:1.0 1:1.0 2:1.0 3:0.0 4:0.0 5:0.0 6:0.46153846153846156 7:0.0 8:1.0 9:1.0 10:1.0 
1.0 0:1.0 1:1.0 2:0.0 3:0.0 4:0.0 5:0.0 6:0.8333333333333334 7:0.0 8:0.0 9:0.0 10:0.0 
1.0 0:1.0 1:0.0 2:1.0 3:0.0 4:0.0 5:0.0 6:0.3846153846153846 7:0.0 8:0.0 9:0.0 10:0.0 
0.1212223399276166 0:0.0 1:0.0 2:0.0 3:1.0 4:0.0 5:0.0 6:0.11111111111111116 7:1.0 8:1.0 9:1.0 10:1.0 
1.0 0:0.0 1:1.0 2:0.0 3:1.0 4:0.0 5:0.0 6:0.875 7:0.0 8:1.0 9:1.0 10:0.0 
1.0 0:0.0 1:0.0 2:1.0 3:1.0 4:0.0 5:0.0 6:0.875 7:0.0 8:1.0 9:1.0 10:0.0 
1.0 0:0.0 1:4.0 2:3.0 3:1.0 4:1.0 5:0.0 6:0.3571428571428571 7:0.0 8:1.0 9:0.0 10:0.0 
0.1831170720809862 0:0.0 1:0.0 2:1.0 3:1.0 4:1.0 5:0.0 6:0.3571428571428571 7:0.0 8:1.0 9:0.0 10:0.0 
1.0 0:0.0 1:2.0 2:2.0 3:1.0 4:1.0 5:0.0 6:0.8571428571428572 7:0.0 8:1.0 9:0.0 10:0.0 
1.0 0:0.0 1:21.0 2:17.0 3:1.0 4:1.0 5:0.0 6:0.4375 7:0.0 8:1.0 9:1.0 10:1.0 
1.0 0:0.0 1:1.0 2:4.0 3:1.0 4:1.0 5:0.0 6:0.4 7:0.0 8:1.0 9:1.0 10:1.0 
0.9990473331135413 0:0.0 1:5.0 2:1.0 3:1.0 4:1.0 5:0.0 6:0.9 7:0.0 8:0.0 9:0.0 10:0.0 
1.0 0:0.0 1:0.0 2:0.0 3:1.0 4:1.0 5:0.0 6:0.9333333333333333 7:0.0 8:0.0 9:0.0 10:0.0 
0.7426828837009639 0:0.0 1:0.0 2:0.0 3:1.0 4:0.0 5:0.0 6:0.11111111111111116 7:1.0 8:1.0 9:0.0 10:1.0 
1.0 0:0.0 1:1.0 2:1.0 3:1.0 4:0.0 5:0.0 6:0.8571428571428572 7:0.0 8:1.0 9:0.0 10:0.0 
0.9067272923369601 0:1.0 1:0.0 2:1.0 3:0.0 4:0.0 5:0.0 6:0.3571428571428571 7:0.0 8:1.0 9:1.0 10:1.0 
1.0 0:1.0 1:4.0 2:3.0 3:0.0 4:0.0 5:0.0 6:0.3571428571428571 7:0.0 8:1.0 9:1.0 10:1.0 
1.0 0:0.0 1:1.0 2:1.0 3:1.0 4:0.0 5:0.0 6:0.46153846153846156 7:0.0 8:1.0 9:1.0 10:1.0 
1.0 0:1.0 1:1.0 2:5.0 3:0.0 4:0.0 5:0.0 6:0.8571428571428572 7:0.0 8:1.0 9:1.0 10:1.0 
1.0 0:0.0 1:0.0 2:0.0 3:0.0 4:1.0 5:0.0 6:0.1923076923076923 7:0.0 8:1.0 9:0.0 10:1.0 
1.0 0:0.0 1:0.0 2:0.0 3:0.0 4:1.0 5:0.0 6:0.2222222222222222 7:0.0 8:1.0 9:0.0 10:1.0 
1.0 0:0.0 1:0.0 2:0.0 3:0.0 4:1.0 5:0.0 6:0.3529411764705882 7:0.0 8:1.0 9:0.0 10:1.0 
1.0 0:0.0 1:16.0 2:3.0 3:1.0 4:1.0 5:0.0 6:0.27586206896551724 7:0.0 8:1.0 9:0.0 10:0.0 
1.0 0:0.0 1:27.0 2:23.0 3:1.0 4:1.0 5:0.0 6:0.30000000000000004 7:0.0 8:1.0 9:0.0 10:0.0 
1.0 0:0.0 1:0.0 2:17.0 3:1.0 4:1.0 5:0.0 6:0.23076923076923073 7:0.0 8:0.0 9:0.0 10:0.0 
1.0 0:1.0 1:1.0 2:5.0 3:0.0 4:0.0 5:0.0 6:0.8571428571428572 7:0.0 8:1.0 9:1.0 10:1.0 
1.0 0:0.0 1:4.0 2:7.0 3:1.0 4:0.0 5:0.0 6:0.8 7:0.0 8:1.0 9:0.0 10:0.0 
1.0 0:0.0 1:2.0 2:2.0 3:1.0 4:1.0 5:0.0 6:0.7777777777777778 7:0.0 8:1.0 9:0.0 10:0.0 
1.0 0:0.0 1:1.0 2:1.0 3:1.0 4:1.0 5:0.0 6:0.125 7:0.0 8:1.0 9:1.0 10:1.0 
0.5140846672457584 0:0.0 1:0.0 2:0.0 3:0.0 4:1.0 5:0.0 6:0.4 7:0.0 8:1.0 9:0.0 10:1.0 
1.0 0:0.0 1:0.0 2:0.0 3:0.0 4:1.0 5:0.0 6:0.125 7:0.0 8:1.0 9:1.0 10:1.0 
0.6284483250258582 0:1.0 1:0.0 2:0.0 3:0.0 4:0.0 5:0.0 6:0.875 7:0.0 8:0.0 9:0.0 10:0.0 
1.0 0:1.0 1:1.0 2:1.0 3:0.0 4:0.0 5:0.0 6:0.875 7:0.0 8:0.0 9:0.0 10:0.0 
0.6031593195590863 0:1.0 1:0.0 2:0.0 3:0.0 4:0.0 5:0.0 6:0.8888888888888888 7:1.0 8:0.0 9:0.0 10:0.0 
1.0 0:1.0 1:2.0 2:1.0 3:0.0 4:0.0 5:0.0 6:0.8333333333333334 7:0.0 8:1.0 9:1.0 10:0.0 
1.0 0:1.0 1:1.0 2:10.0 3:0.0 4:0.0 5:0.0 6:0.8333333333333334 7:0.0 8:1.0 9:1.0 10:0.0 
0.7994243451679205 0:0.0 1:0.0 2:0.0 3:1.0 4:1.0 5:0.0 6:0.9090909090909091 7:0.0 8:1.0 9:1.0 10:0.0 
1.0 0:1.0 1:16.0 2:10.0 3:0.0 4:0.0 5:0.0 6:0.8333333333333334 7:0.0 8:0.0 9:0.0 10:0.0 
1.0 0:1.0 1:6.0 2:1.0 3:0.0 4:0.0 5:0.0 6:0.26315789473684215 7:0.0 8:0.0 9:0.0 10:0.0 
1.0 0:1.0 1:5.0 2:3.0 3:0.0 4:0.0 5:0.0 6:0.33333333333333337 7:0.0 8:0.0 9:0.0 10:0.0 
1.0 0:1.0 1:1.0 2:2.0 3:0.0 4:0.0 5:0.0 6:0.8888888888888888 7:0.0 8:1.0 9:1.0 10:1.0 
1.0 0:1.0 1:4.0 2:3.0 3:0.0 4:0.0 5:0.0 6:0.5 7:0.0 8:1.0 9:1.0 10:1.0 
1.0 0:1.0 1:0.0 2:3.0 3:0.0 4:0.0 5:0.0 6:0.8 7:0.0 8:0.0 9:0.0 10:0.0 
0.9913730181181019 0:1.0 1:2.0 2:0.0 3:0.0 4:0.0 5:0.0 6:0.8 7:0.0 8:1.0 9:0.0 10:0.0 
0.9631359200532913 0:1.0 1:1.0 2:9.0 3:0.0 4:0.0 5:0.0 6:0.8 7:0.0 8:1.0 9:0.0 10:0.0 
1.0 0:1.0 1:0.0 2:6.0 3:0.0 4:0.0 5:0.0 6:0.8 7:0.0 8:1.0 9:0.0 10:0.0 
1.0 0:1.0 1:1.0 2:1.0 3:0.0 4:0.0 5:0.0 6:0.06060606060606055 7:0.0 8:1.0 9:1.0 10:1.0 
1.0 0:1.0 1:5.0 2:5.0 3:0.0 4:0.0 5:0.0 6:0.8888888888888888 7:0.0 8:1.0 9:1.0 10:1.0 
1.0 0:0.0 1:1.0 2:0.0 3:1.0 4:0.0 5:0.0 6:0.875 7:0.0 8:0.0 9:0.0 10:0.0 
1.0 0:1.0 1:4.0 2:4.0 3:0.0 4:0.0 5:0.0 6:0.8333333333333334 7:0.0 8:0.0 9:0.0 10:0.0 
1.0 0:1.0 1:2.0 2:0.0 3:0.0 4:0.0 5:0.0 6:0.8333333333333334 7:0.0 8:0.0 9:0.0 10:0.0 
0.026118302242881183 0:1.0 1:0.0 2:0.0 3:0.0 4:0.0 5:0.0 6:0.33333333333333337 7:0.0 8:1.0 9:0.0 10:1.0 
1.0 0:1.0 1:2.0 2:3.0 3:0.0 4:0.0 5:0.0 6:0.8571428571428572 7:0.0 8:0.0 9:0.0 10:0.0 
1.0 0:1.0 1:32.0 2:32.0 3:0.0 4:0.0 5:0.0 6:0.8571428571428572 7:0.0 8:0.0 9:0.0 10:0.0 
1.0 0:1.0 1:31.0 2:31.0 3:0.0 4:0.0 5:0.0 6:0.8571428571428572 7:0.0 8:0.0 9:0.0 10:0.0 
1.0 0:0.0 1:2.0 2:2.0 3:1.0 4:1.0 5:0.0 6:0.9 7:0.0 8:1.0 9:1.0 10:1.0 
1.0 0:0.0 1:1.0 2:1.0 3:1.0 4:1.0 5:0.0 6:0.2857142857142857 7:0.0 8:1.0 9:1.0 10:1.0 
1.0 0:0.0 1:1.0 2:1.0 3:1.0 4:1.0 5:0.0 6:0.46153846153846156 7:0.0 8:0.0 9:0.0 10:0.0 
0.7653848171775959 0:0.0 1:0.0 2:0.0 3:1.0 4:1.0 5:0.0 6:0.0 7:0.0 8:0.0 9:0.0 10:0.0 
1.0 0:1.0 1:1.0 2:1.0 3:0.0 4:0.0 5:0.0 6:0.8571428571428572 7:0.0 8:1.0 9:1.0 10:0.0 
1.0 0:1.0 1:1.0 2:1.0 3:0.0 4:0.0 5:0.0 6:0.8260869565217391 7:0.0 8:1.0 9:1.0 10:1.0 
1.0 0:0.0 1:1.0 2:3.0 3:1.0 4:1.0 5:0.0 6:0.875 7:0.0 8:1.0 9:1.0 10:1.0 
1.0 0:1.0 1:1.0 2:1.0 3:0.0 4:0.0 5:0.0 6:0.06060606060606055 7:0.0 8:1.0 9:1.0 10:1.0 
1.0 0:0.0 1:4.0 2:4.0 3:1.0 4:1.0 5:0.0 6:0.75 7:0.0 8:1.0 9:1.0 10:1.0 
1.0 0:0.0 1:0.0 2:3.0 3:1.0 4:1.0 5:0.0 6:0.8 7:0.0 8:1.0 9:1.0 10:1.0 
1.0 0:1.0 1:0.0 2:1.0 3:0.0 4:0.0 5:0.0 6:0.2222222222222222 7:0.0 8:0.0 9:0.0 10:0.0 
1.0 0:1.0 1:1.0 2:0.0 3:0.0 4:0.0 5:0.0 6:0.8571428571428572 7:0.0 8:0.0 9:0.0 10:0.0 
1.0 0:1.0 1:0.0 2:1.0 3:0.0 4:0.0 5:0.0 6:0.8888888888888888 7:0.0 8:1.0 9:1.0 10:1.0 
0.9991725121694803 0:0.0 1:0.0 2:1.0 3:1.0 4:0.0 5:0.0 6:0.75 7:0.0 8:0.0 9:0.0 10:0.0 
1.0 0:0.0 1:1.0 2:0.0 3:1.0 4:0.0 5:0.0 6:0.875 7:0.0 8:0.0 9:0.0 10:0.0 
0.10276503362812814 0:0.0 1:0.0 2:0.0 3:1.0 4:1.0 5:0.0 6:0.0 7:0.0 8:1.0 9:1.0 10:1.0 
1.0 0:1.0 1:1.0 2:1.0 3:0.0 4:0.0 5:0.0 6:0.10810810810810811 7:0.0 8:1.0 9:0.0 10:1.0 
1.0 0:0.0 1:8.0 2:32.0 3:1.0 4:0.0 5:0.0 6:0.8571428571428572 7:0.0 8:1.0 9:1.0 10:1.0 
1.0 0:0.0 1:7.0 2:9.0 3:1.0 4:0.0 5:0.0 6:0.8571428571428572 7:0.0 8:1.0 9:1.0 10:1.0 
0.195288504736611 0:0.0 1:0.0 2:0.0 3:1.0 4:0.0 5:0.0 6:0.11111111111111116 7:1.0 8:1.0 9:1.0 10:0.0 
0.9836202627129669 0:0.0 1:0.0 2:1.0 3:1.0 4:0.0 5:0.0 6:0.875 7:0.0 8:0.0 9:0.0 10:0.0 
0.7538497444454033 0:0.0 1:1.0 2:0.0 3:1.0 4:0.0 5:0.0 6:0.875 7:0.0 8:0.0 9:0.0 10:0.0 
1.0 0:1.0 1:1.0 2:1.0 3:0.0 4:0.0 5:0.0 6:0.4545454545454546 7:0.0 8:1.0 9:1.0 10:1.0 
-1.0 0:1.0 1:3.0 2:3.0 3:0.0 4:0.0 5:0.0 6:0.3846153846153846 7:0.0 8:1.0 9:1.0 10:1.0 
-1.0 0:1.0 1:5.0 2:5.0 3:0.0 4:0.0 5:0.0 6:0.8333333333333334 7:0.0 8:1.0 9:1.0 10:1.0 
-1.0 0:1.0 1:4.0 2:4.0 3:0.0 4:0.0 5:0.0 6:0.8333333333333334 7:0.0 8:1.0 9:1.0 10:1.0 
-1.0 0:1.0 1:0.0 2:0.0 3:0.0 4:0.0 5:0.0 6:0.8571428571428572 7:0.0 8:1.0 9:1.0 10:1.0 
-1.0 0:1.0 1:0.0 2:0.0 3:0.0 4:0.0 5:0.0 6:0.3076923076923077 7:0.0 8:0.0 9:0.0 10:0.0 
-0.0035394415027841892 0:1.0 1:8.0 2:8.0 3:0.0 4:0.0 5:0.0 6:0.8888888888888888 7:0.0 8:0.0 9:0.0 10:0.0 
-1.0 0:1.0 1:1.0 2:1.0 3:0.0 4:0.0 5:0.0 6:0.8888888888888888 7:0.0 8:0.0 9:0.0 10:0.0 
-1.0 0:0.0 1:4.0 2:5.0 3:1.0 4:1.0 5:0.0 6:0.875 7:0.0 8:1.0 9:1.0 10:1.0 
-1.0 0:0.0 1:0.0 2:1.0 3:1.0 4:1.0 5:0.0 6:0.42105263157894735 7:0.0 8:0.0 9:0.0 10:0.0 
-1.0 0:1.0 1:1.0 2:1.0 3:0.0 4:0.0 5:0.0 6:0.8333333333333334 7:0.0 8:1.0 9:1.0 10:1.0 
-1.0 0:0.0 1:1.0 2:1.0 3:1.0 4:0.0 5:0.0 6:0.9090909090909091 7:0.0 8:0.0 9:0.0 10:0.0 
-1.0 0:1.0 1:0.0 2:1.0 3:0.0 4:0.0 5:0.0 6:0.0625 7:0.0 8:0.0 9:0.0 10:0.0 
-1.0 0:1.0 1:0.0 2:0.0 3:0.0 4:0.0 5:0.0 6:0.8888888888888888 7:0.0 8:1.0 9:1.0 10:1.0 
-0.003077517181644257 0:0.0 1:64.0 2:64.0 3:1.0 4:1.0 5:0.0 6:0.875 7:0.0 8:1.0 9:1.0 10:1.0 
-0.0015684574656836163 0:0.0 1:65.0 2:65.0 3:1.0 4:0.0 5:0.0 6:0.875 7:0.0 8:1.0 9:1.0 10:0.0 
-8.629759866786713E-4 0:0.0 1:66.0 2:66.0 3:1.0 4:0.0 5:0.0 6:0.875 7:0.0 8:1.0 9:1.0 10:0.0 
-6.098766496542381E-4 0:0.0 1:63.0 2:63.0 3:1.0 4:1.0 5:0.0 6:0.875 7:0.0 8:1.0 9:1.0 10:1.0 
-1.0 0:0.0 1:1.0 2:2.0 3:1.0 4:0.0 5:0.0 6:0.875 7:0.0 8:1.0 9:1.0 10:1.0 
-0.002115265387511167 0:0.0 1:47.0 2:47.0 3:1.0 4:0.0 5:0.0 6:0.875 7:0.0 8:1.0 9:1.0 10:0.0 
-0.002028942950250465 0:0.0 1:61.0 2:61.0 3:1.0 4:0.0 5:0.0 6:0.875 7:0.0 8:1.0 9:1.0 10:0.0 
-0.002535055720863512 0:0.0 1:85.0 2:85.0 3:0.0 4:1.0 5:0.0 6:0.875 7:0.0 8:1.0 9:1.0 10:0.0 
-0.001362409253567348 0:0.0 1:70.0 2:70.0 3:0.0 4:1.0 5:0.0 6:0.875 7:0.0 8:1.0 9:1.0 10:0.0 
-0.0012398224354092102 0:0.0 1:80.0 2:80.0 3:0.0 4:0.0 5:0.0 6:0.875 7:0.0 8:1.0 9:1.0 10:1.0 
-7.175236911479144E-4 0:0.0 1:75.0 2:75.0 3:0.0 4:0.0 5:0.0 6:0.875 7:0.0 8:1.0 9:1.0 10:1.0 
-7.034377875936859E-4 0:0.0 1:15.0 2:15.0 3:0.0 4:1.0 5:0.0 6:0.875 7:0.0 8:1.0 9:1.0 10:0.0 
-1.0 0:0.0 1:5.0 2:2.0 3:0.0 4:1.0 5:0.0 6:0.1428571428571429 7:0.0 8:1.0 9:0.0 10:0.0 
-1.0 0:1.0 1:4.0 2:3.0 3:0.0 4:0.0 5:0.0 6:0.8333333333333334 7:0.0 8:0.0 9:0.0 10:0.0 
-0.6302765123729338 0:1.0 1:5.0 2:4.0 3:0.0 4:0.0 5:0.0 6:0.2777777777777778 7:0.0 8:0.0 9:0.0 10:0.0 
-1.0 0:1.0 1:1.0 2:1.0 3:0.0 4:0.0 5:0.0 6:0.8333333333333334 7:0.0 8:0.0 9:0.0 10:0.0 
-1.0 0:1.0 1:0.0 2:1.0 3:0.0 4:0.0 5:0.0 6:0.7777777777777778 7:0.0 8:1.0 9:1.0 10:1.0 
-1.0 0:1.0 1:1.0 2:1.0 3:0.0 4:0.0 5:0.0 6:0.04878048780487809 7:0.0 8:1.0 9:1.0 10:0.0 
-1.0 0:1.0 1:0.0 2:0.0 3:0.0 4:0.0 5:0.0 6:0.88 7:0.0 8:0.0 9:0.0 10:0.0 
-1.0 0:1.0 1:1.0 2:1.0 3:0.0 4:0.0 5:0.0 6:0.88 7:0.0 8:0.0 9:0.0 10:0.0 
-0.02513805147357631 0:1.0 1:5.0 2:5.0 3:0.0 4:0.0 5:0.0 6:0.8571428571428572 7:0.0 8:1.0 9:0.0 10:1.0 
-1.0 0:1.0 1:3.0 2:5.0 3:0.0 4:0.0 5:0.0 6:0.8571428571428572 7:0.0 8:1.0 9:1.0 10:1.0 
-1.0 0:1.0 1:0.0 2:3.0 3:0.0 4:0.0 5:0.0 6:0.4285714285714286 7:0.0 8:1.0 9:1.0 10:1.0 
-1.0 0:1.0 1:1.0 2:0.0 3:0.0 4:0.0 5:0.0 6:0.3529411764705882 7:0.0 8:1.0 9:1.0 10:1.0 
-0.2897502663524798 0:1.0 1:6.0 2:1.0 3:0.0 4:0.0 5:0.0 6:0.4285714285714286 7:0.0 8:1.0 9:0.0 10:0.0 
-0.5308560446488784 0:0.0 1:0.0 2:0.0 3:0.0 4:0.0 5:0.0 6:0.05555555555555558 7:0.0 8:1.0 9:1.0 10:1.0 
-1.0 0:1.0 1:0.0 2:1.0 3:0.0 4:0.0 5:0.0 6:0.9 7:0.0 8:1.0 9:1.0 10:0.0 
-0.003395264368372219 0:0.0 1:29.0 2:13.0 3:1.0 4:0.0 5:0.0 6:0.9166666666666666 7:0.0 8:1.0 9:1.0 10:1.0 
-0.003405508401290979 0:0.0 1:23.0 2:25.0 3:1.0 4:1.0 5:0.0 6:0.9166666666666666 7:0.0 8:1.0 9:1.0 10:1.0 
-0.4590840491018868 0:0.0 1:16.0 2:4.0 3:1.0 4:1.0 5:0.0 6:0.33333333333333337 7:0.0 8:1.0 9:1.0 10:1.0 
-0.0015476818175638174 0:0.0 1:19.0 2:21.0 3:1.0 4:1.0 5:0.0 6:0.9166666666666666 7:0.0 8:1.0 9:1.0 10:1.0 
-0.9728938989011403 0:0.0 1:8.0 2:9.0 3:1.0 4:1.0 5:0.0 6:0.9166666666666666 7:0.0 8:1.0 9:1.0 10:1.0 
-0.0016537749881764935 0:0.0 1:25.0 2:27.0 3:1.0 4:0.0 5:0.0 6:0.9166666666666666 7:0.0 8:1.0 9:1.0 10:1.0 
-0.0023214119213093806 0:0.0 1:24.0 2:26.0 3:1.0 4:1.0 5:0.0 6:0.9166666666666666 7:0.0 8:1.0 9:1.0 10:1.0 
-6.971940450495318E-4 0:0.0 1:37.0 2:37.0 3:1.0 4:1.0 5:0.0 6:0.9166666666666666 7:0.0 8:1.0 9:1.0 10:1.0 
-0.0025601894831593234 0:0.0 1:15.0 2:18.0 3:1.0 4:1.0 5:0.0 6:0.9166666666666666 7:0.0 8:1.0 9:1.0 10:1.0 
-0.0011573209855894606 0:0.0 1:26.0 2:28.0 3:1.0 4:0.0 5:0.0 6:0.9166666666666666 7:0.0 8:1.0 9:1.0 10:1.0 
-0.0023939821695241263 0:0.0 1:10.0 2:15.0 3:1.0 4:1.0 5:0.0 6:0.9166666666666666 7:0.0 8:1.0 9:1.0 10:1.0 
-0.004871507456254587 0:0.0 1:36.0 2:14.0 3:1.0 4:1.0 5:0.0 6:0.9166666666666666 7:0.0 8:1.0 9:1.0 10:1.0 
-0.0017766858025635157 0:0.0 1:14.0 2:17.0 3:1.0 4:1.0 5:0.0 6:0.9166666666666666 7:0.0 8:1.0 9:1.0 10:1.0 
-0.003759925193580921 0:0.0 1:88.0 2:49.0 3:1.0 4:0.0 5:0.0 6:0.8571428571428572 7:0.0 8:1.0 9:1.0 10:0.0 
-0.002457430086295397 0:0.0 1:86.0 2:122.0 3:1.0 4:0.0 5:0.0 6:0.8571428571428572 7:0.0 8:1.0 9:1.0 10:0.0 
-0.004498984098611819 0:0.0 1:94.0 2:128.0 3:1.0 4:1.0 5:0.0 6:0.8571428571428572 7:0.0 8:1.0 9:1.0 10:1.0 
-0.0030015176023960866 0:0.0 1:96.0 2:52.0 3:1.0 4:1.0 5:0.0 6:0.2222222222222222 7:0.0 8:1.0 9:1.0 10:1.0 
-0.003456312577746811 0:0.0 1:95.0 2:51.0 3:1.0 4:1.0 5:0.0 6:0.4 7:0.0 8:1.0 9:1.0 10:1.0 
-0.003469121627157114 0:0.0 1:89.0 2:124.0 3:1.0 4:1.0 5:0.0 6:0.8571428571428572 7:0.0 8:1.0 9:1.0 10:1.0 
-0.0022851895600361745 0:0.0 1:90.0 2:125.0 3:1.0 4:1.0 5:0.0 6:0.8571428571428572 7:0.0 8:1.0 9:1.0 10:1.0 
-0.004581159919661182 0:0.0 1:164.0 2:167.0 3:1.0 4:1.0 5:0.0 6:0.8571428571428572 7:0.0 8:1.0 9:1.0 10:1.0 
-0.0036082098997651246 0:0.0 1:84.0 2:48.0 3:1.0 4:0.0 5:0.0 6:0.6 7:0.0 8:1.0 9:1.0 10:0.0 
-0.003092642088111491 0:0.0 1:14.0 2:28.0 3:1.0 4:1.0 5:0.0 6:0.8571428571428572 7:0.0 8:1.0 9:1.0 10:1.0 
-0.002907767116725706 0:0.0 1:91.0 2:126.0 3:1.0 4:0.0 5:0.0 6:0.8571428571428572 7:0.0 8:1.0 9:1.0 10:0.0 
-0.002206219619137538 0:0.0 1:92.0 2:127.0 3:1.0 4:0.0 5:0.0 6:0.8571428571428572 7:0.0 8:1.0 9:1.0 10:0.0 
-0.003924099851764415 0:0.0 1:93.0 2:50.0 3:1.0 4:0.0 5:0.0 6:0.8571428571428572 7:0.0 8:1.0 9:1.0 10:0.0 
-0.002697518919569942 0:0.0 1:87.0 2:123.0 3:1.0 4:0.0 5:0.0 6:0.8571428571428572 7:0.0 8:1.0 9:1.0 10:0.0 
-0.0027323934121139537 0:0.0 1:85.0 2:121.0 3:1.0 4:0.0 5:0.0 6:0.8571428571428572 7:0.0 8:1.0 9:1.0 10:0.0 
-0.001062089974373459 0:0.0 1:116.0 2:136.0 3:0.0 4:0.0 5:0.0 6:0.8571428571428572 7:0.0 8:1.0 9:0.0 10:0.0 
-0.003542694020560198 0:0.0 1:10.0 2:24.0 3:1.0 4:1.0 5:0.0 6:0.8571428571428572 7:0.0 8:1.0 9:1.0 10:1.0 
-0.003816961034510389 0:0.0 1:163.0 2:73.0 3:1.0 4:1.0 5:0.0 6:0.8571428571428572 7:0.0 8:1.0 9:1.0 10:1.0 
-0.00311762115682169 0:0.0 1:56.0 2:105.0 3:1.0 4:0.0 5:0.0 6:0.8571428571428572 7:0.0 8:1.0 9:1.0 10:0.0 
-8.691034428708888E-4 0:0.0 1:97.0 2:129.0 3:0.0 4:0.0 5:0.0 6:0.8571428571428572 7:0.0 8:1.0 9:0.0 10:0.0 
-0.0011640625607253763 0:0.0 1:98.0 2:130.0 3:0.0 4:0.0 5:0.0 6:0.8571428571428572 7:0.0 8:1.0 9:0.0 10:0.0 
-0.0038132456507081747 0:0.0 1:124.0 2:139.0 3:0.0 4:1.0 5:0.0 6:0.8571428571428572 7:0.0 8:1.0 9:0.0 10:1.0 
-0.0013163600948999377 0:0.0 1:125.0 2:140.0 3:0.0 4:0.0 5:0.0 6:0.8571428571428572 7:0.0 8:1.0 9:0.0 10:0.0 
-0.0016749566927864283 0:0.0 1:112.0 2:61.0 3:0.0 4:0.0 5:0.0 6:0.6 7:0.0 8:1.0 9:0.0 10:0.0 
-0.0021874323008231333 0:0.0 1:118.0 2:138.0 3:0.0 4:0.0 5:0.0 6:0.8571428571428572 7:0.0 8:1.0 9:0.0 10:0.0 
-0.003711289755818359 0:0.0 1:6.0 2:75.0 3:0.0 4:1.0 5:0.0 6:0.8571428571428572 7:0.0 8:1.0 9:0.0 10:1.0 
-0.003042729356771856 0:0.0 1:8.0 2:77.0 3:0.0 4:1.0 5:0.0 6:0.8571428571428572 7:0.0 8:1.0 9:0.0 10:1.0 
-0.004143029249943673 0:0.0 1:113.0 2:17.0 3:0.0 4:1.0 5:0.0 6:0.5 7:0.0 8:1.0 9:0.0 10:1.0 
-0.0013416445427014145 0:0.0 1:119.0 2:18.0 3:0.0 4:0.0 5:0.0 6:0.6 7:0.0 8:1.0 9:0.0 10:0.0 
-0.0014464501811796149 0:0.0 1:114.0 2:62.0 3:0.0 4:0.0 5:0.0 6:0.6 7:0.0 8:1.0 9:0.0 10:0.0 
-0.0015369975648877473 0:0.0 1:115.0 2:135.0 3:0.0 4:0.0 5:0.0 6:0.8571428571428572 7:0.0 8:1.0 9:0.0 10:0.0 
-0.0011073220849608933 0:0.0 1:111.0 2:60.0 3:0.0 4:0.0 5:0.0 6:0.375 7:0.0 8:1.0 9:0.0 10:0.0 
-0.0017910681870479347 0:0.0 1:110.0 2:59.0 3:0.0 4:0.0 5:0.0 6:0.375 7:0.0 8:1.0 9:0.0 10:0.0 
-0.001273431311273554 0:0.0 1:123.0 2:64.0 3:0.0 4:0.0 5:0.0 6:0.6 7:0.0 8:1.0 9:0.0 10:0.0 
-0.0021809879040615644 0:0.0 1:57.0 2:106.0 3:1.0 4:0.0 5:0.0 6:0.8571428571428572 7:0.0 8:1.0 9:1.0 10:0.0 
-7.215176744627128E-4 0:0.0 1:120.0 2:19.0 3:0.0 4:0.0 5:0.0 6:0.6 7:0.0 8:1.0 9:0.0 10:0.0 
-0.002871136332513291 0:0.0 1:156.0 2:162.0 3:0.0 4:0.0 5:0.0 6:0.8571428571428572 7:0.0 8:1.0 9:0.0 10:0.0 
-0.0018222739345227223 0:0.0 1:7.0 2:76.0 3:0.0 4:0.0 5:0.0 6:0.8571428571428572 7:0.0 8:1.0 9:0.0 10:0.0 
-0.0019630763239962823 0:0.0 1:158.0 2:164.0 3:0.0 4:0.0 5:0.0 6:0.3529411764705882 7:0.0 8:1.0 9:0.0 10:0.0 
-0.001239084284913039 0:0.0 1:122.0 2:6.0 3:0.0 4:0.0 5:0.0 6:0.25 7:0.0 8:1.0 9:0.0 10:0.0 
-0.0032240750767125737 0:0.0 1:121.0 2:63.0 3:0.0 4:0.0 5:0.0 6:0.6 7:0.0 8:1.0 9:0.0 10:0.0 
-7.723772513676041E-4 0:0.0 1:78.0 2:115.0 3:0.0 4:0.0 5:0.0 6:0.8571428571428572 7:0.0 8:1.0 9:0.0 10:0.0 
-0.0013845931889746033 0:0.0 1:80.0 2:117.0 3:0.0 4:0.0 5:0.0 6:0.8571428571428572 7:0.0 8:1.0 9:0.0 10:0.0 
-0.0013790436338567075 0:0.0 1:79.0 2:116.0 3:0.0 4:0.0 5:0.0 6:0.8571428571428572 7:0.0 8:1.0 9:0.0 10:0.0 
-0.0036825681445057834 0:0.0 1:62.0 2:41.0 3:0.0 4:1.0 5:0.0 6:0.6 7:0.0 8:1.0 9:0.0 10:1.0 
-6.798450873291007E-4 0:0.0 1:70.0 2:108.0 3:0.0 4:0.0 5:0.0 6:0.8571428571428572 7:0.0 8:1.0 9:0.0 10:0.0 
-0.0023693656883377323 0:0.0 1:81.0 2:118.0 3:0.0 4:1.0 5:0.0 6:0.8571428571428572 7:0.0 8:1.0 9:0.0 10:1.0 
-0.0023007540091727085 0:0.0 1:82.0 2:119.0 3:0.0 4:1.0 5:0.0 6:0.8571428571428572 7:0.0 8:1.0 9:0.0 10:1.0 
-0.0022743195611806552 0:0.0 1:71.0 2:109.0 3:0.0 4:0.0 5:0.0 6:0.8571428571428572 7:0.0 8:1.0 9:0.0 10:0.0 
-0.0025607373597991583 0:0.0 1:83.0 2:120.0 3:0.0 4:1.0 5:0.0 6:0.8571428571428572 7:0.0 8:1.0 9:0.0 10:1.0 
-8.44780248149879E-4 0:0.0 1:63.0 2:14.0 3:0.0 4:0.0 5:0.0 6:0.6 7:0.0 8:1.0 9:0.0 10:0.0 
-7.114765664522626E-4 0:0.0 1:73.0 2:110.0 3:0.0 4:0.0 5:0.0 6:0.8571428571428572 7:0.0 8:1.0 9:0.0 10:0.0 
-0.0015428279958041302 0:0.0 1:128.0 2:141.0 3:0.0 4:0.0 5:0.0 6:0.6 7:0.0 8:1.0 9:0.0 10:0.0 
-0.001562773055224731 0:0.0 1:126.0 2:7.0 3:0.0 4:0.0 5:0.0 6:0.4545454545454546 7:0.0 8:1.0 9:0.0 10:0.0 
-0.0014560182039118907 0:0.0 1:72.0 2:47.0 3:0.0 4:0.0 5:0.0 6:0.8571428571428572 7:0.0 8:1.0 9:0.0 10:0.0 
-0.0013270681830361841 0:0.0 1:76.0 2:113.0 3:0.0 4:0.0 5:0.0 6:0.8571428571428572 7:0.0 8:1.0 9:0.0 10:0.0 
-6.754400699147123E-4 0:0.0 1:64.0 2:42.0 3:0.0 4:0.0 5:0.0 6:0.6 7:0.0 8:1.0 9:0.0 10:0.0 
-0.04834490325047402 0:0.0 1:1.0 2:22.0 3:0.0 4:0.0 5:0.0 6:0.46153846153846156 7:0.0 8:1.0 9:0.0 10:0.0 
-0.001720193823072369 0:0.0 1:170.0 2:74.0 3:0.0 4:0.0 5:0.0 6:0.46153846153846156 7:0.0 8:1.0 9:0.0 10:0.0 
-0.003272956607445421 0:0.0 1:107.0 2:133.0 3:0.0 4:1.0 5:0.0 6:0.8571428571428572 7:0.0 8:1.0 9:0.0 10:1.0 
-0.0012883688814674943 0:0.0 1:68.0 2:45.0 3:0.0 4:0.0 5:0.0 6:0.6 7:0.0 8:1.0 9:0.0 10:0.0 
-0.0015772944971004788 0:0.0 1:127.0 2:65.0 3:0.0 4:0.0 5:0.0 6:0.6 7:0.0 8:1.0 9:0.0 10:0.0 
-0.0015920206747387367 0:0.0 1:74.0 2:111.0 3:0.0 4:0.0 5:0.0 6:0.8571428571428572 7:0.0 8:1.0 9:0.0 10:0.0 
-0.001870304935538892 0:0.0 1:162.0 2:166.0 3:0.0 4:0.0 5:0.0 6:0.8571428571428572 7:0.0 8:1.0 9:0.0 10:0.0 
-0.0015584140620689712 0:0.0 1:69.0 2:46.0 3:0.0 4:0.0 5:0.0 6:0.6 7:0.0 8:1.0 9:0.0 10:0.0 
-0.0023747244493264597 0:0.0 1:77.0 2:114.0 3:0.0 4:0.0 5:0.0 6:0.8571428571428572 7:0.0 8:1.0 9:0.0 10:0.0 
-8.30282623859091E-4 0:0.0 1:102.0 2:56.0 3:0.0 4:0.0 5:0.0 6:0.8571428571428572 7:0.0 8:1.0 9:0.0 10:0.0 
-0.0010406539828624606 0:0.0 1:136.0 2:144.0 3:0.0 4:0.0 5:0.0 6:0.8571428571428572 7:0.0 8:1.0 9:0.0 10:0.0 
-0.0020316910711359864 0:0.0 1:101.0 2:55.0 3:0.0 4:0.0 5:0.0 6:0.375 7:0.0 8:1.0 9:0.0 10:0.0 
-0.0022611958272889697 0:0.0 1:135.0 2:143.0 3:0.0 4:0.0 5:0.0 6:0.8571428571428572 7:0.0 8:1.0 9:0.0 10:0.0 
-0.0015269242081411005 0:0.0 1:99.0 2:53.0 3:0.0 4:0.0 5:0.0 6:0.375 7:0.0 8:1.0 9:0.0 10:0.0 
-0.0017804272467542444 0:0.0 1:143.0 2:149.0 3:0.0 4:0.0 5:0.0 6:0.8571428571428572 7:0.0 8:1.0 9:0.0 10:0.0 
-9.525690724603297E-4 0:0.0 1:142.0 2:148.0 3:0.0 4:0.0 5:0.0 6:0.8571428571428572 7:0.0 8:1.0 9:0.0 10:0.0 
-0.002865255659833088 0:0.0 1:152.0 2:158.0 3:0.0 4:0.0 5:0.0 6:0.8571428571428572 7:0.0 8:1.0 9:0.0 10:0.0 
-0.0012229115376665427 0:0.0 1:134.0 2:70.0 3:0.0 4:0.0 5:0.0 6:0.8571428571428572 7:0.0 8:1.0 9:0.0 10:0.0 
-0.0016930840384094786 0:0.0 1:132.0 2:68.0 3:0.0 4:0.0 5:0.0 6:0.6 7:0.0 8:1.0 9:0.0 10:0.0 
-0.0019885689951071777 0:0.0 1:133.0 2:69.0 3:0.0 4:0.0 5:0.0 6:0.8571428571428572 7:0.0 8:1.0 9:0.0 10:0.0 
-0.002087591933277856 0:0.0 1:150.0 2:156.0 3:0.0 4:0.0 5:0.0 6:0.8571428571428572 7:0.0 8:1.0 9:0.0 10:0.0 
-0.001250872836211614 0:0.0 1:108.0 2:134.0 3:0.0 4:0.0 5:0.0 6:0.8571428571428572 7:0.0 8:1.0 9:0.0 10:0.0 
-0.0015980588939910056 0:0.0 1:137.0 2:20.0 3:0.0 4:0.0 5:0.0 6:0.46153846153846156 7:0.0 8:1.0 9:0.0 10:0.0 
-0.0016897329473504607 0:0.0 1:145.0 2:151.0 3:0.0 4:0.0 5:0.0 6:0.8571428571428572 7:0.0 8:1.0 9:0.0 10:0.0 
-0.0021068421584243824 0:0.0 1:146.0 2:152.0 3:0.0 4:0.0 5:0.0 6:0.8571428571428572 7:0.0 8:1.0 9:0.0 10:0.0 
-5.090573298026646E-4 0:0.0 1:144.0 2:150.0 3:0.0 4:0.0 5:0.0 6:0.8571428571428572 7:0.0 8:1.0 9:0.0 10:0.0 
-0.002535873803540034 0:0.0 1:148.0 2:154.0 3:0.0 4:0.0 5:0.0 6:0.8571428571428572 7:0.0 8:1.0 9:0.0 10:0.0 
-0.0012607058230064139 0:0.0 1:139.0 2:71.0 3:0.0 4:0.0 5:0.0 6:0.8571428571428572 7:0.0 8:1.0 9:0.0 10:0.0 
-0.0023427498575604513 0:0.0 1:141.0 2:147.0 3:0.0 4:0.0 5:0.0 6:0.8571428571428572 7:0.0 8:1.0 9:0.0 10:0.0 
-0.002504561455998252 0:0.0 1:46.0 2:36.0 3:0.0 4:0.0 5:0.0 6:0.8571428571428572 7:0.0 8:1.0 9:0.0 10:0.0 
-0.0011898579152715954 0:0.0 1:44.0 2:98.0 3:0.0 4:0.0 5:0.0 6:0.8571428571428572 7:0.0 8:1.0 9:0.0 10:0.0 
-0.001781396821578518 0:0.0 1:138.0 2:145.0 3:0.0 4:0.0 5:0.0 6:0.8571428571428572 7:0.0 8:1.0 9:0.0 10:0.0 
-0.0018174565272399 0:0.0 1:45.0 2:99.0 3:0.0 4:0.0 5:0.0 6:0.8571428571428572 7:0.0 8:1.0 9:0.0 10:0.0 
-0.0032442569700424917 0:0.0 1:140.0 2:146.0 3:0.0 4:1.0 5:0.0 6:0.8571428571428572 7:0.0 8:1.0 9:0.0 10:1.0 
-0.05657324625152871 0:0.0 1:49.0 2:12.0 3:0.0 4:1.0 5:0.0 6:0.5 7:0.0 8:1.0 9:0.0 10:1.0 
-0.0022486015656940873 0:0.0 1:42.0 2:96.0 3:0.0 4:0.0 5:0.0 6:0.8571428571428572 7:0.0 8:1.0 9:0.0 10:0.0 
-0.003323078067824603 0:0.0 1:38.0 2:92.0 3:0.0 4:1.0 5:0.0 6:0.8571428571428572 7:0.0 8:1.0 9:0.0 10:1.0 
-0.0010170006163205958 0:0.0 1:48.0 2:101.0 3:0.0 4:0.0 5:0.0 6:0.8571428571428572 7:0.0 8:1.0 9:0.0 10:0.0 
-0.0013505479379048446 0:0.0 1:47.0 2:100.0 3:0.0 4:0.0 5:0.0 6:0.8571428571428572 7:0.0 8:1.0 9:0.0 10:0.0 
-0.003297600737027861 0:0.0 1:34.0 2:88.0 3:0.0 4:1.0 5:0.0 6:0.8571428571428572 7:0.0 8:1.0 9:0.0 10:1.0 
-0.0015447137001086478 0:0.0 1:40.0 2:94.0 3:0.0 4:0.0 5:0.0 6:0.8571428571428572 7:0.0 8:1.0 9:0.0 10:0.0 
-0.0016156734435822107 0:0.0 1:37.0 2:91.0 3:0.0 4:0.0 5:0.0 6:0.8571428571428572 7:0.0 8:1.0 9:0.0 10:0.0 
-0.002121278054758405 0:0.0 1:35.0 2:89.0 3:0.0 4:0.0 5:0.0 6:0.8571428571428572 7:0.0 8:1.0 9:0.0 10:0.0 
-0.0014765694601896473 0:0.0 1:33.0 2:35.0 3:0.0 4:1.0 5:0.0 6:0.8571428571428572 7:0.0 8:1.0 9:0.0 10:1.0 
-0.0021936746926787226 0:0.0 1:28.0 2:86.0 3:0.0 4:0.0 5:0.0 6:0.8571428571428572 7:0.0 8:1.0 9:0.0 10:0.0 
-0.0018638094250453185 0:0.0 1:32.0 2:87.0 3:0.0 4:0.0 5:0.0 6:0.8571428571428572 7:0.0 8:1.0 9:0.0 10:0.0 
-0.001866234184132524 0:0.0 1:159.0 2:21.0 3:0.0 4:0.0 5:0.0 6:0.4285714285714286 7:0.0 8:1.0 9:0.0 10:0.0 
-0.0025944091192065012 0:0.0 1:22.0 2:80.0 3:0.0 4:0.0 5:0.0 6:0.8571428571428572 7:0.0 8:1.0 9:0.0 10:0.0 
-0.0019067683018240671 0:0.0 1:26.0 2:84.0 3:0.0 4:0.0 5:0.0 6:0.8571428571428572 7:0.0 8:1.0 9:0.0 10:0.0 
-0.0018912705351825966 0:0.0 1:50.0 2:37.0 3:0.0 4:0.0 5:0.0 6:0.25 7:0.0 8:1.0 9:0.0 10:0.0 
-0.0013308769777308279 0:0.0 1:160.0 2:165.0 3:0.0 4:0.0 5:0.0 6:0.8571428571428572 7:0.0 8:1.0 9:0.0 10:0.0 
-0.00228021929103192 0:0.0 1:24.0 2:82.0 3:0.0 4:0.0 5:0.0 6:0.8571428571428572 7:0.0 8:1.0 9:0.0 10:0.0 
-0.002790109669686458 0:0.0 1:60.0 2:40.0 3:0.0 4:1.0 5:0.0 6:0.6 7:0.0 8:1.0 9:0.0 10:1.0 
-0.0035217879920782266 0:0.0 1:54.0 2:5.0 3:0.0 4:0.0 5:0.0 6:0.7142857142857143 7:0.0 8:1.0 9:0.0 10:0.0 
-8.47759156158423E-4 0:0.0 1:25.0 2:83.0 3:0.0 4:0.0 5:0.0 6:0.8571428571428572 7:0.0 8:1.0 9:0.0 10:0.0 
-0.001472549987379972 0:0.0 1:19.0 2:79.0 3:0.0 4:0.0 5:0.0 6:0.8571428571428572 7:0.0 8:1.0 9:0.0 10:0.0 
-0.0018537546464745258 0:0.0 1:59.0 2:13.0 3:0.0 4:0.0 5:0.0 6:0.6 7:0.0 8:1.0 9:0.0 10:0.0 
-0.0019494927716192656 0:0.0 1:105.0 2:131.0 3:0.0 4:0.0 5:0.0 6:0.8571428571428572 7:0.0 8:1.0 9:0.0 10:0.0 
-0.00221129281983393 0:0.0 1:55.0 2:38.0 3:0.0 4:0.0 5:0.0 6:0.7142857142857143 7:0.0 8:1.0 9:0.0 10:0.0 
-0.001283602983286059 0:0.0 1:21.0 2:11.0 3:0.0 4:0.0 5:0.0 6:0.6 7:0.0 8:1.0 9:0.0 10:0.0 
-0.0017897927123218854 0:0.0 1:53.0 2:104.0 3:0.0 4:0.0 5:0.0 6:0.8571428571428572 7:0.0 8:1.0 9:0.0 10:0.0 
-0.0015517158566941136 0:0.0 1:103.0 2:57.0 3:0.0 4:0.0 5:0.0 6:0.6 7:0.0 8:1.0 9:0.0 10:0.0 
-0.002967702544755646 0:0.0 1:61.0 2:107.0 3:0.0 4:0.0 5:0.0 6:0.8571428571428572 7:0.0 8:1.0 9:0.0 10:0.0 
-0.001024220145318111 0:0.0 1:58.0 2:39.0 3:0.0 4:0.0 5:0.0 6:0.6 7:0.0 8:1.0 9:0.0 10:0.0 
-0.0025612696051942334 0:0.0 1:51.0 2:102.0 3:0.0 4:0.0 5:0.0 6:0.8571428571428572 7:0.0 8:1.0 9:0.0 10:0.0 
-0.00200886280882627 0:0.0 1:169.0 2:4.0 3:0.0 4:0.0 5:0.0 6:0.08333333333333337 7:0.0 8:1.0 9:0.0 10:0.0 
-0.0022995639750480468 0:0.0 1:18.0 2:78.0 3:0.0 4:0.0 5:0.0 6:0.8571428571428572 7:0.0 8:1.0 9:0.0 10:0.0 
-0.0017594987861611067 0:0.0 1:168.0 2:8.0 3:0.0 4:0.0 5:0.0 6:0.10526315789473684 7:0.0 8:1.0 9:0.0 10:0.0 
-9.811726097528894E-4 0:0.0 1:104.0 2:58.0 3:0.0 4:0.0 5:0.0 6:0.8571428571428572 7:0.0 8:1.0 9:0.0 10:0.0 
-0.0019971340624575507 0:0.0 1:106.0 2:132.0 3:0.0 4:1.0 5:0.0 6:0.8571428571428572 7:0.0 8:1.0 9:0.0 10:1.0 
-0.007058491231611896 0:0.0 1:17.0 2:2.0 3:0.0 4:0.0 5:0.0 6:0.4285714285714286 7:0.0 8:1.0 9:0.0 10:0.0 
-0.0016505050946630795 0:0.0 1:131.0 2:142.0 3:0.0 4:0.0 5:0.0 6:0.8571428571428572 7:0.0 8:1.0 9:0.0 10:0.0 
-0.0033028284866443713 0:0.0 1:185.0 2:185.0 3:0.0 4:1.0 5:0.0 6:0.8571428571428572 7:0.0 8:1.0 9:0.0 10:1.0 
-9.62085344743846E-4 0:0.0 1:186.0 2:186.0 3:0.0 4:0.0 5:0.0 6:0.8571428571428572 7:0.0 8:1.0 9:0.0 10:0.0 
-6.498902681074115E-4 0:0.0 1:176.0 2:176.0 3:0.0 4:0.0 5:0.0 6:0.8571428571428572 7:0.0 8:1.0 9:0.0 10:0.0 
-0.0015312109460087597 0:0.0 1:171.0 2:171.0 3:0.0 4:0.0 5:0.0 6:0.8571428571428572 7:0.0 8:1.0 9:0.0 10:0.0 
-0.001393218228171067 0:0.0 1:172.0 2:172.0 3:0.0 4:0.0 5:0.0 6:0.8571428571428572 7:0.0 8:1.0 9:0.0 10:0.0 
-0.002286261394988609 0:0.0 1:180.0 2:180.0 3:0.0 4:0.0 5:0.0 6:0.8571428571428572 7:0.0 8:1.0 9:0.0 10:0.0 
-0.0021434640600661026 0:0.0 1:161.0 2:72.0 3:0.0 4:0.0 5:0.0 6:0.8571428571428572 7:0.0 8:1.0 9:0.0 10:0.0 
-0.0015164896190944096 0:0.0 1:182.0 2:182.0 3:0.0 4:0.0 5:0.0 6:0.8571428571428572 7:0.0 8:1.0 9:0.0 10:0.0 
-0.004231894035948258 0:0.0 1:174.0 2:174.0 3:0.0 4:1.0 5:0.0 6:0.8571428571428572 7:0.0 8:1.0 9:0.0 10:1.0 
-0.0035546833922306103 0:0.0 1:177.0 2:177.0 3:0.0 4:1.0 5:0.0 6:0.8571428571428572 7:0.0 8:1.0 9:0.0 10:1.0 
-0.0027218526674649968 0:0.0 1:154.0 2:160.0 3:0.0 4:0.0 5:0.0 6:0.8571428571428572 7:0.0 8:1.0 9:0.0 10:0.0 
-1.0 0:0.0 1:1.0 2:2.0 3:0.0 4:1.0 5:0.0 6:0.875 7:0.0 8:0.0 9:0.0 10:0.0 
-1.0 0:1.0 1:0.0 2:0.0 3:0.0 4:0.0 5:0.0 6:0.23529411764705888 7:0.0 8:1.0 9:0.0 10:1.0 
-1.0 0:1.0 1:1.0 2:1.0 3:0.0 4:0.0 5:0.0 6:0.8333333333333334 7:0.0 8:0.0 9:0.0 10:0.0 
-6.515244251646957E-4 0:1.0 1:23.0 2:23.0 3:0.0 4:0.0 5:0.0 6:0.875 7:0.0 8:1.0 9:0.0 10:1.0 
-1.0 0:0.0 1:1.0 2:1.0 3:1.0 4:1.0 5:0.0 6:0.875 7:0.0 8:1.0 9:1.0 10:0.0 
-0.15400835766466647 0:0.0 1:2.0 2:2.0 3:1.0 4:1.0 5:0.0 6:0.875 7:0.0 8:1.0 9:1.0 10:0.0 
-1.0 0:1.0 1:1.0 2:1.0 3:0.0 4:0.0 5:0.0 6:0.41666666666666663 7:0.0 8:1.0 9:1.0 10:1.0 
-1.0 0:0.0 1:1.0 2:1.0 3:1.0 4:1.0 5:0.0 6:0.30000000000000004 7:0.0 8:0.0 9:0.0 10:0.0 
-0.1836667779584943 0:1.0 1:21.0 2:16.0 3:0.0 4:0.0 5:0.0 6:0.75 7:0.0 8:1.0 9:1.0 10:1.0 
-0.002364207280836028 0:1.0 1:23.0 2:26.0 3:0.0 4:0.0 5:0.0 6:0.875 7:0.0 8:1.0 9:1.0 10:1.0 
-0.0033558919774840292 0:1.0 1:20.0 2:23.0 3:0.0 4:0.0 5:0.0 6:0.0 7:0.0 8:1.0 9:1.0 10:1.0 
-0.22900295832741802 0:1.0 1:22.0 2:17.0 3:0.0 4:0.0 5:0.0 6:0.75 7:0.0 8:1.0 9:1.0 10:1.0 
-0.0018049928848472036 0:1.0 1:9.0 2:12.0 3:0.0 4:0.0 5:0.0 6:0.4117647058823529 7:0.0 8:1.0 9:1.0 10:1.0 
-0.0016511094336653653 0:1.0 1:32.0 2:5.0 3:0.0 4:0.0 5:0.0 6:0.75 7:0.0 8:1.0 9:1.0 10:1.0 
-0.002033550688347263 0:1.0 1:6.0 2:18.0 3:0.0 4:0.0 5:0.0 6:0.6363636363636364 7:0.0 8:1.0 9:1.0 10:1.0 
-0.19545501282390215 0:1.0 1:11.0 2:4.0 3:0.0 4:0.0 5:0.0 6:0.35 7:0.0 8:1.0 9:1.0 10:1.0 
-0.0013751372936783267 0:1.0 1:15.0 2:13.0 3:0.0 4:0.0 5:0.0 6:0.3529411764705882 7:0.0 8:1.0 9:1.0 10:1.0 
-1.0 0:1.0 1:4.0 2:2.0 3:0.0 4:0.0 5:0.0 6:0.368421052631579 7:0.0 8:1.0 9:1.0 10:1.0 
-0.015271394494245583 0:1.0 1:27.0 2:21.0 3:0.0 4:0.0 5:0.0 6:0.875 7:0.0 8:1.0 9:1.0 10:1.0 
-0.004911518756850197 0:1.0 1:1.0 2:25.0 3:0.0 4:0.0 5:0.0 6:0.875 7:0.0 8:1.0 9:1.0 10:1.0 
-0.00224465399943663 0:1.0 1:24.0 2:1.0 3:0.0 4:0.0 5:0.0 6:0.1428571428571429 7:0.0 8:0.0 9:0.0 10:0.0 
-0.003116232265765491 0:1.0 1:22.0 2:9.0 3:0.0 4:0.0 5:0.0 6:0.7142857142857143 7:0.0 8:0.0 9:0.0 10:0.0 
-9.712945230505032E-4 0:1.0 1:9.0 2:13.0 3:0.0 4:0.0 5:0.0 6:0.7142857142857143 7:0.0 8:0.0 9:0.0 10:0.0 
-0.002831031609910384 0:1.0 1:48.0 2:48.0 3:0.0 4:0.0 5:0.0 6:0.8888888888888888 7:0.0 8:1.0 9:1.0 10:1.0 
-0.0011492471571130014 0:1.0 1:7.0 2:21.0 3:0.0 4:0.0 5:0.0 6:0.8888888888888888 7:0.0 8:1.0 9:1.0 10:1.0 
-0.283201432432025 0:1.0 1:39.0 2:41.0 3:0.0 4:0.0 5:0.0 6:0.8888888888888888 7:0.0 8:1.0 9:1.0 10:1.0 
-0.005314924438854451 0:1.0 1:46.0 2:1.0 3:0.0 4:0.0 5:0.0 6:0.2727272727272727 7:0.0 8:1.0 9:1.0 10:1.0 
-0.5229534037173422 0:1.0 1:5.0 2:6.0 3:0.0 4:0.0 5:0.0 6:0.8888888888888888 7:0.0 8:1.0 9:1.0 10:1.0 
-9.143409948078052E-4 0:1.0 1:21.0 2:13.0 3:0.0 4:0.0 5:0.0 6:0.75 7:0.0 8:1.0 9:1.0 10:1.0 
-0.0017129959721939483 0:1.0 1:8.0 2:22.0 3:0.0 4:0.0 5:0.0 6:0.8888888888888888 7:0.0 8:1.0 9:1.0 10:1.0 
-0.002780592279284344 0:1.0 1:19.0 2:26.0 3:0.0 4:0.0 5:0.0 6:0.8888888888888888 7:0.0 8:1.0 9:1.0 10:1.0 
-0.001294769986653621 0:1.0 1:28.0 2:14.0 3:0.0 4:0.0 5:0.0 6:0.8888888888888888 7:0.0 8:1.0 9:1.0 10:1.0 
-0.002925960676399997 0:1.0 1:17.0 2:25.0 3:0.0 4:0.0 5:0.0 6:0.8888888888888888 7:0.0 8:1.0 9:1.0 10:1.0 
-7.667233229547432E-4 0:1.0 1:16.0 2:11.0 3:0.0 4:0.0 5:0.0 6:0.8888888888888888 7:0.0 8:1.0 9:1.0 10:1.0 
-0.0010289919666936877 0:1.0 1:12.0 2:8.0 3:0.0 4:0.0 5:0.0 6:0.5 7:0.0 8:1.0 9:1.0 10:1.0 
-6.326784599578472E-4 0:1.0 1:18.0 2:12.0 3:0.0 4:0.0 5:0.0 6:0.8888888888888888 7:0.0 8:1.0 9:1.0 10:1.0 
-8.018848358962716E-4 0:1.0 1:11.0 2:24.0 3:0.0 4:0.0 5:0.0 6:0.8888888888888888 7:0.0 8:1.0 9:1.0 10:1.0 
-0.002339011649533726 0:1.0 1:29.0 2:15.0 3:0.0 4:0.0 5:0.0 6:0.8888888888888888 7:0.0 8:1.0 9:1.0 10:1.0 
-0.002702212283864078 0:1.0 1:36.0 2:16.0 3:0.0 4:0.0 5:0.0 6:0.8888888888888888 7:0.0 8:1.0 9:1.0 10:1.0 
-0.0029214787062846193 0:1.0 1:35.0 2:39.0 3:0.0 4:0.0 5:0.0 6:0.8888888888888888 7:0.0 8:1.0 9:1.0 10:1.0 
-0.7464540034649789 0:1.0 1:1.0 2:4.0 3:0.0 4:0.0 5:0.0 6:0.5714285714285714 7:0.0 8:1.0 9:1.0 10:1.0 
-0.0010746237108322787 0:1.0 1:45.0 2:18.0 3:0.0 4:0.0 5:0.0 6:0.75 7:0.0 8:1.0 9:1.0 10:1.0 
-0.946992057906199 0:1.0 1:3.0 2:3.0 3:0.0 4:0.0 5:0.0 6:0.5 7:0.0 8:1.0 9:1.0 10:1.0 
-0.0030731171608342667 0:1.0 1:37.0 2:17.0 3:0.0 4:0.0 5:0.0 6:0.5 7:0.0 8:1.0 9:1.0 10:1.0 
-0.0012272466651316871 0:1.0 1:44.0 2:46.0 3:0.0 4:0.0 5:0.0 6:0.8888888888888888 7:0.0 8:1.0 9:1.0 10:1.0 
-6.033801889944179E-4 0:1.0 1:43.0 2:45.0 3:0.0 4:0.0 5:0.0 6:0.8888888888888888 7:0.0 8:1.0 9:1.0 10:1.0 
-0.003140731134959031 0:1.0 1:28.0 2:12.0 3:0.0 4:0.0 5:0.0 6:0.8888888888888888 7:0.0 8:1.0 9:1.0 10:0.0 
-1.0 0:1.0 1:0.0 2:1.0 3:0.0 4:0.0 5:0.0 6:0.8888888888888888 7:0.0 8:1.0 9:1.0 10:1.0 
-6.200421980205872E-4 0:1.0 1:51.0 2:52.0 3:0.0 4:0.0 5:0.0 6:0.8888888888888888 7:0.0 8:1.0 9:1.0 10:0.0 
-0.0015174008460716003 0:1.0 1:25.0 2:28.0 3:0.0 4:0.0 5:0.0 6:0.8888888888888888 7:0.0 8:1.0 9:1.0 10:0.0 
-0.0014166162994516118 0:1.0 1:59.0 2:60.0 3:0.0 4:0.0 5:0.0 6:0.8888888888888888 7:0.0 8:1.0 9:1.0 10:0.0 
-0.0016168092163526366 0:1.0 1:30.0 2:13.0 3:0.0 4:0.0 5:0.0 6:0.5333333333333333 7:0.0 8:1.0 9:0.0 10:0.0 
-0.4144109794468166 0:1.0 1:29.0 2:31.0 3:0.0 4:0.0 5:0.0 6:0.8888888888888888 7:0.0 8:1.0 9:1.0 10:1.0 
-1.0 0:1.0 1:4.0 2:0.0 3:0.0 4:0.0 5:0.0 6:0.8888888888888888 7:0.0 8:1.0 9:1.0 10:1.0 
-5.704252351736439E-4 0:1.0 1:72.0 2:73.0 3:0.0 4:0.0 5:0.0 6:0.8888888888888888 7:0.0 8:1.0 9:1.0 10:0.0 
-8.820209471521734E-4 0:1.0 1:71.0 2:72.0 3:0.0 4:0.0 5:0.0 6:0.8888888888888888 7:0.0 8:1.0 9:1.0 10:0.0 
-0.0025794031379303096 0:1.0 1:75.0 2:75.0 3:0.0 4:0.0 5:0.0 6:0.8888888888888888 7:0.0 8:1.0 9:0.0 10:1.0 
-7.274349717246444E-4 0:1.0 1:70.0 2:71.0 3:0.0 4:0.0 5:0.0 6:0.8888888888888888 7:0.0 8:1.0 9:1.0 10:0.0 
-0.0012204535777752823 0:1.0 1:68.0 2:69.0 3:0.0 4:0.0 5:0.0 6:0.8888888888888888 7:0.0 8:1.0 9:1.0 10:0.0 
-0.005999587994912459 0:1.0 1:73.0 2:14.0 3:0.0 4:0.0 5:0.0 6:0.5 7:0.0 8:1.0 9:0.0 10:1.0 
-8.296137644430919E-4 0:1.0 1:67.0 2:68.0 3:0.0 4:0.0 5:0.0 6:0.8888888888888888 7:0.0 8:1.0 9:1.0 10:1.0 
-0.0018116572826841204 0:1.0 1:24.0 2:27.0 3:0.0 4:0.0 5:0.0 6:0.8888888888888888 7:0.0 8:1.0 9:0.0 10:1.0 
-0.0010039396618090868 0:1.0 1:15.0 2:19.0 3:0.0 4:0.0 5:0.0 6:0.8888888888888888 7:0.0 8:1.0 9:0.0 10:1.0 
-8.825458169627434E-4 0:1.0 1:16.0 2:20.0 3:0.0 4:0.0 5:0.0 6:0.8888888888888888 7:0.0 8:1.0 9:0.0 10:0.0 
-2.523191240153149E-4 0:1.0 1:19.0 2:22.0 3:0.0 4:0.0 5:0.0 6:0.8888888888888888 7:0.0 8:1.0 9:0.0 10:0.0 
-0.0025284737132735824 0:1.0 1:40.0 2:41.0 3:0.0 4:0.0 5:0.0 6:0.8888888888888888 7:0.0 8:1.0 9:0.0 10:0.0 
-1.0 0:0.0 1:0.0 2:0.0 3:1.0 4:0.0 5:0.0 6:0.8333333333333334 7:0.0 8:1.0 9:1.0 10:1.0 
-1.0 0:0.0 1:1.0 2:0.0 3:0.0 4:1.0 5:0.0 6:0.875 7:0.0 8:1.0 9:0.0 10:1.0 
-1.0 0:1.0 1:1.0 2:2.0 3:0.0 4:0.0 5:0.0 6:0.8571428571428572 7:0.0 8:1.0 9:1.0 10:1.0 
-1.0 0:1.0 1:2.0 2:1.0 3:0.0 4:0.0 5:0.0 6:0.8571428571428572 7:0.0 8:1.0 9:1.0 10:1.0 
-0.9520102744144796 0:1.0 1:5.0 2:5.0 3:0.0 4:0.0 5:0.0 6:0.8571428571428572 7:0.0 8:1.0 9:1.0 10:1.0 
-0.03773895153139438 0:0.0 1:4.0 2:6.0 3:1.0 4:0.0 5:0.0 6:0.8333333333333334 7:0.0 8:1.0 9:0.0 10:0.0 
-1.0 0:1.0 1:0.0 2:1.0 3:0.0 4:0.0 5:0.0 6:0.0625 7:0.0 8:0.0 9:0.0 10:0.0 
-0.0010814267206864258 0:1.0 1:15.0 2:19.0 3:0.0 4:0.0 5:0.0 6:0.5 7:0.0 8:1.0 9:1.0 10:1.0 
-9.398224126876964E-4 0:1.0 1:16.0 2:20.0 3:0.0 4:0.0 5:0.0 6:0.5 7:0.0 8:1.0 9:1.0 10:1.0 
-0.2693928860712803 0:1.0 1:9.0 2:4.0 3:0.0 4:0.0 5:0.0 6:0.1428571428571429 7:0.0 8:1.0 9:1.0 10:1.0 
-0.052909970400010414 0:1.0 1:20.0 2:3.0 3:0.0 4:0.0 5:0.0 6:0.25 7:0.0 8:1.0 9:1.0 10:1.0 
-0.40850410487837774 0:1.0 1:2.0 2:10.0 3:0.0 4:0.0 5:0.0 6:0.5 7:0.0 8:1.0 9:1.0 10:1.0 
-1.0 0:1.0 1:1.0 2:0.0 3:0.0 4:0.0 5:0.0 6:0.05882352941176472 7:0.0 8:1.0 9:1.0 10:1.0 
-0.001129515242992798 0:1.0 1:21.0 2:9.0 3:0.0 4:0.0 5:0.0 6:0.5 7:0.0 8:1.0 9:1.0 10:1.0 
-0.0024709946895877977 0:1.0 1:18.0 2:21.0 3:0.0 4:0.0 5:0.0 6:0.5 7:0.0 8:1.0 9:1.0 10:1.0 
-0.22807304416838087 0:1.0 1:1.0 2:1.0 3:0.0 4:0.0 5:0.0 6:0.6 7:0.0 8:1.0 9:0.0 10:0.0 
-0.3555840434226107 0:1.0 1:112.0 2:112.0 3:0.0 4:0.0 5:0.0 6:0.9 7:0.0 8:0.0 9:0.0 10:0.0 
-0.002587215985644019 0:1.0 1:108.0 2:108.0 3:0.0 4:0.0 5:0.0 6:0.9 7:0.0 8:0.0 9:0.0 10:0.0 
-9.962691003792504E-4 0:1.0 1:5.0 2:25.0 3:0.0 4:0.0 5:0.0 6:0.9 7:0.0 8:0.0 9:0.0 10:0.0 
-0.0012941414931979072 0:1.0 1:117.0 2:117.0 3:0.0 4:0.0 5:0.0 6:0.9 7:0.0 8:0.0 9:0.0 10:0.0 
-0.0016021443782586445 0:1.0 1:119.0 2:119.0 3:0.0 4:0.0 5:0.0 6:0.9 7:0.0 8:0.0 9:0.0 10:0.0 
-0.002127893824772122 0:1.0 1:68.0 2:78.0 3:0.0 4:0.0 5:0.0 6:0.9 7:0.0 8:0.0 9:0.0 10:0.0 
-0.0031816853687118337 0:1.0 1:56.0 2:12.0 3:0.0 4:0.0 5:0.0 6:0.0 7:0.0 8:0.0 9:0.0 10:0.0 
-0.002148881398036151 0:1.0 1:58.0 2:68.0 3:0.0 4:0.0 5:0.0 6:0.9 7:0.0 8:0.0 9:0.0 10:0.0 
-0.0017111426150964984 0:1.0 1:59.0 2:69.0 3:0.0 4:0.0 5:0.0 6:0.9 7:0.0 8:0.0 9:0.0 10:0.0 
-0.0023652266967921914 0:1.0 1:19.0 2:34.0 3:0.0 4:0.0 5:0.0 6:0.9 7:0.0 8:0.0 9:0.0 10:0.0 
-0.0026717011781509144 0:1.0 1:60.0 2:70.0 3:0.0 4:0.0 5:0.0 6:0.9 7:0.0 8:0.0 9:0.0 10:0.0 
-0.0018509622427594985 0:1.0 1:61.0 2:71.0 3:0.0 4:0.0 5:0.0 6:0.9 7:0.0 8:0.0 9:0.0 10:0.0 
-8.241174806771491E-4 0:1.0 1:20.0 2:35.0 3:0.0 4:0.0 5:0.0 6:0.9 7:0.0 8:0.0 9:0.0 10:0.0 
-0.0022197053361332486 0:1.0 1:62.0 2:72.0 3:0.0 4:0.0 5:0.0 6:0.9 7:0.0 8:0.0 9:0.0 10:0.0 
-0.0019002000067336153 0:1.0 1:63.0 2:73.0 3:0.0 4:0.0 5:0.0 6:0.9 7:0.0 8:0.0 9:0.0 10:0.0 
-0.0033703391220337164 0:1.0 1:57.0 2:67.0 3:0.0 4:0.0 5:0.0 6:0.9 7:0.0 8:0.0 9:0.0 10:0.0 
-0.0015115121266882617 0:1.0 1:67.0 2:77.0 3:0.0 4:0.0 5:0.0 6:0.9 7:0.0 8:0.0 9:0.0 10:0.0 
-0.002409923987615137 0:1.0 1:64.0 2:74.0 3:0.0 4:0.0 5:0.0 6:0.9 7:0.0 8:0.0 9:0.0 10:0.0 
-0.002737276333015121 0:1.0 1:66.0 2:76.0 3:0.0 4:0.0 5:0.0 6:0.9 7:0.0 8:0.0 9:0.0 10:0.0 
-0.0016023746782484194 0:1.0 1:65.0 2:75.0 3:0.0 4:0.0 5:0.0 6:0.9 7:0.0 8:0.0 9:0.0 10:0.0 
-0.001095181808529857 0:1.0 1:75.0 2:82.0 3:0.0 4:0.0 5:0.0 6:0.9 7:0.0 8:0.0 9:0.0 10:0.0 
-0.002997799408525101 0:1.0 1:76.0 2:83.0 3:0.0 4:0.0 5:0.0 6:0.9 7:0.0 8:0.0 9:0.0 10:0.0 
-0.002483720160354417 0:1.0 1:74.0 2:81.0 3:0.0 4:0.0 5:0.0 6:0.9 7:0.0 8:0.0 9:0.0 10:0.0 
-0.00269786554644598 0:1.0 1:78.0 2:85.0 3:0.0 4:0.0 5:0.0 6:0.9 7:0.0 8:0.0 9:0.0 10:0.0 
-5.893446643868705E-4 0:1.0 1:81.0 2:88.0 3:0.0 4:0.0 5:0.0 6:0.9 7:0.0 8:0.0 9:0.0 10:0.0 
-0.003616098120992617 0:1.0 1:71.0 2:4.0 3:0.0 4:0.0 5:0.0 6:0.9 7:0.0 8:0.0 9:0.0 10:0.0 
-0.003882291414700509 0:1.0 1:70.0 2:13.0 3:0.0 4:0.0 5:0.0 6:0.4545454545454546 7:0.0 8:0.0 9:0.0 10:0.0 
-0.0020977291182180946 0:1.0 1:105.0 2:106.0 3:0.0 4:0.0 5:0.0 6:0.9 7:0.0 8:0.0 9:0.0 10:0.0 
-0.003777681693937107 0:1.0 1:104.0 2:19.0 3:0.0 4:0.0 5:0.0 6:0.5263157894736843 7:0.0 8:0.0 9:0.0 10:0.0 
-0.0018056582950497513 0:1.0 1:106.0 2:107.0 3:0.0 4:0.0 5:0.0 6:0.9 7:0.0 8:0.0 9:0.0 10:0.0 
-0.0016123948067154337 0:1.0 1:88.0 2:92.0 3:0.0 4:0.0 5:0.0 6:0.9 7:0.0 8:0.0 9:0.0 10:0.0 
-0.003404976028474856 0:1.0 1:92.0 2:17.0 3:0.0 4:0.0 5:0.0 6:0.6923076923076923 7:0.0 8:0.0 9:0.0 10:0.0 
-0.0010291270533022367 0:1.0 1:77.0 2:84.0 3:0.0 4:0.0 5:0.0 6:0.9 7:0.0 8:0.0 9:0.0 10:0.0 
-0.0021049957985597723 0:1.0 1:89.0 2:93.0 3:0.0 4:0.0 5:0.0 6:0.9 7:0.0 8:0.0 9:0.0 10:0.0 
-0.003635912435078381 0:1.0 1:91.0 2:95.0 3:0.0 4:0.0 5:0.0 6:0.9 7:0.0 8:0.0 9:0.0 10:0.0 
-0.0016266595671337422 0:1.0 1:83.0 2:15.0 3:0.0 4:0.0 5:0.0 6:0.9 7:0.0 8:0.0 9:0.0 10:0.0 
-0.003770681800496874 0:1.0 1:55.0 2:2.0 3:0.0 4:0.0 5:0.0 6:0.6923076923076923 7:0.0 8:0.0 9:0.0 10:0.0 
-0.001032993699065385 0:1.0 1:94.0 2:96.0 3:0.0 4:0.0 5:0.0 6:0.9 7:0.0 8:0.0 9:0.0 10:0.0 
-0.0037716025188127555 0:1.0 1:28.0 2:42.0 3:0.0 4:0.0 5:0.0 6:0.9 7:0.0 8:0.0 9:0.0 10:0.0 
-0.0024383439322226545 0:1.0 1:8.0 2:28.0 3:0.0 4:0.0 5:0.0 6:0.9 7:0.0 8:0.0 9:0.0 10:0.0 
-0.0023999963736990758 0:1.0 1:6.0 2:26.0 3:0.0 4:0.0 5:0.0 6:0.9 7:0.0 8:0.0 9:0.0 10:0.0 
-7.447030252025139E-4 0:1.0 1:29.0 2:10.0 3:0.0 4:0.0 5:0.0 6:0.9 7:0.0 8:0.0 9:0.0 10:0.0 
-8.301278069358653E-4 0:1.0 1:30.0 2:11.0 3:0.0 4:0.0 5:0.0 6:0.9 7:0.0 8:0.0 9:0.0 10:0.0 
-0.0031907677672963755 0:1.0 1:31.0 2:43.0 3:0.0 4:0.0 5:0.0 6:0.9 7:0.0 8:0.0 9:0.0 10:0.0 
-0.0019621635536921644 0:1.0 1:84.0 2:89.0 3:0.0 4:0.0 5:0.0 6:0.9 7:0.0 8:0.0 9:0.0 10:0.0 
-0.0017529153494415528 0:1.0 1:93.0 2:18.0 3:0.0 4:0.0 5:0.0 6:0.625 7:0.0 8:0.0 9:0.0 10:0.0 
-0.0015943073448138635 0:1.0 1:44.0 2:56.0 3:0.0 4:0.0 5:0.0 6:0.9 7:0.0 8:0.0 9:0.0 10:0.0 
-0.002722040083557824 0:1.0 1:122.0 2:122.0 3:0.0 4:0.0 5:0.0 6:0.9 7:0.0 8:0.0 9:0.0 10:0.0 
-0.0017612808717874517 0:1.0 1:38.0 2:50.0 3:0.0 4:0.0 5:0.0 6:0.9 7:0.0 8:0.0 9:0.0 10:0.0 
-0.0014746017705746794 0:1.0 1:95.0 2:97.0 3:0.0 4:0.0 5:0.0 6:0.9 7:0.0 8:0.0 9:0.0 10:0.0 
-0.00368778006493572 0:1.0 1:85.0 2:16.0 3:0.0 4:0.0 5:0.0 6:0.9 7:0.0 8:0.0 9:0.0 10:0.0 
-0.002689835539271393 0:1.0 1:37.0 2:49.0 3:0.0 4:0.0 5:0.0 6:0.9 7:0.0 8:0.0 9:0.0 10:0.0 
-0.0018774851748133425 0:1.0 1:4.0 2:24.0 3:0.0 4:0.0 5:0.0 6:0.9 7:0.0 8:0.0 9:0.0 10:0.0 
-0.0028654614858841876 0:1.0 1:54.0 2:66.0 3:0.0 4:0.0 5:0.0 6:0.9 7:0.0 8:0.0 9:0.0 10:0.0 
-0.0027367464364770194 0:1.0 1:82.0 2:14.0 3:0.0 4:0.0 5:0.0 6:0.9 7:0.0 8:0.0 9:0.0 10:0.0 
-0.0029436527502579276 0:1.0 1:43.0 2:55.0 3:0.0 4:0.0 5:0.0 6:0.9 7:0.0 8:0.0 9:0.0 10:0.0 
-0.0021335290951901235 0:1.0 1:53.0 2:65.0 3:0.0 4:0.0 5:0.0 6:0.9 7:0.0 8:0.0 9:0.0 10:0.0 
-0.0013087265167250474 0:1.0 1:47.0 2:59.0 3:0.0 4:0.0 5:0.0 6:0.9 7:0.0 8:0.0 9:0.0 10:0.0 
-0.0033034546486349695 0:1.0 1:46.0 2:58.0 3:0.0 4:0.0 5:0.0 6:0.9 7:0.0 8:0.0 9:0.0 10:0.0 
-0.001698798433260596 0:1.0 1:32.0 2:44.0 3:0.0 4:0.0 5:0.0 6:0.9 7:0.0 8:0.0 9:0.0 10:0.0 
-0.002550597697031809 0:1.0 1:33.0 2:45.0 3:0.0 4:0.0 5:0.0 6:0.9 7:0.0 8:0.0 9:0.0 10:0.0 
-9.980410514332284E-4 0:1.0 1:39.0 2:51.0 3:0.0 4:0.0 5:0.0 6:0.9 7:0.0 8:0.0 9:0.0 10:0.0 
-0.0018895432239743274 0:1.0 1:48.0 2:60.0 3:0.0 4:0.0 5:0.0 6:0.9 7:0.0 8:0.0 9:0.0 10:0.0 
-0.0028618924106919427 0:1.0 1:40.0 2:52.0 3:0.0 4:0.0 5:0.0 6:0.9 7:0.0 8:0.0 9:0.0 10:0.0 
-0.0026280949889245786 0:1.0 1:35.0 2:47.0 3:0.0 4:0.0 5:0.0 6:0.9 7:0.0 8:0.0 9:0.0 10:0.0 
-0.0022925110784992302 0:1.0 1:34.0 2:46.0 3:0.0 4:0.0 5:0.0 6:0.9 7:0.0 8:0.0 9:0.0 10:0.0 
-0.0012967478628079232 0:1.0 1:49.0 2:61.0 3:0.0 4:0.0 5:0.0 6:0.9 7:0.0 8:0.0 9:0.0 10:0.0 
-9.199693745144955E-4 0:1.0 1:36.0 2:48.0 3:0.0 4:0.0 5:0.0 6:0.9 7:0.0 8:0.0 9:0.0 10:0.0 
-0.0016253581591434908 0:1.0 1:45.0 2:57.0 3:0.0 4:0.0 5:0.0 6:0.9 7:0.0 8:0.0 9:0.0 10:0.0 
-8.818402144269922E-4 0:1.0 1:41.0 2:53.0 3:0.0 4:0.0 5:0.0 6:0.9 7:0.0 8:0.0 9:0.0 10:0.0 
-0.003043870543665732 0:1.0 1:107.0 2:20.0 3:0.0 4:0.0 5:0.0 6:0.9 7:0.0 8:0.0 9:0.0 10:0.0 
-8.360141737579485E-4 0:1.0 1:52.0 2:64.0 3:0.0 4:0.0 5:0.0 6:0.9 7:0.0 8:0.0 9:0.0 10:0.0 
-0.001111910399826721 0:1.0 1:42.0 2:54.0 3:0.0 4:0.0 5:0.0 6:0.9 7:0.0 8:0.0 9:0.0 10:0.0 
-0.0013710506718164763 0:1.0 1:50.0 2:62.0 3:0.0 4:0.0 5:0.0 6:0.9 7:0.0 8:0.0 9:0.0 10:0.0 
-0.002778477427375914 0:1.0 1:51.0 2:63.0 3:0.0 4:0.0 5:0.0 6:0.9 7:0.0 8:0.0 9:0.0 10:0.0 
-9.985079345018043E-4 0:1.0 1:123.0 2:123.0 3:0.0 4:0.0 5:0.0 6:0.9 7:0.0 8:0.0 9:0.0 10:0.0 
-0.0025345092463942565 0:1.0 1:73.0 2:80.0 3:0.0 4:0.0 5:0.0 6:0.9 7:0.0 8:0.0 9:0.0 10:0.0 
-0.002366636677341092 0:1.0 1:96.0 2:98.0 3:0.0 4:0.0 5:0.0 6:0.9 7:0.0 8:0.0 9:0.0 10:0.0 
-0.001040156724851811 0:1.0 1:97.0 2:99.0 3:0.0 4:0.0 5:0.0 6:0.9 7:0.0 8:0.0 9:0.0 10:0.0 
-0.0021173874559040663 0:1.0 1:100.0 2:102.0 3:0.0 4:0.0 5:0.0 6:0.9 7:0.0 8:0.0 9:0.0 10:0.0 
-0.0014710964355733047 0:1.0 1:98.0 2:100.0 3:0.0 4:0.0 5:0.0 6:0.9 7:0.0 8:0.0 9:0.0 10:0.0 
-0.0020551664260591096 0:1.0 1:99.0 2:101.0 3:0.0 4:0.0 5:0.0 6:0.9 7:0.0 8:0.0 9:0.0 10:0.0 
-0.0014524603419143745 0:1.0 1:10.0 2:30.0 3:0.0 4:0.0 5:0.0 6:0.9 7:0.0 8:0.0 9:0.0 10:0.0 
-0.0025950016059902866 0:1.0 1:9.0 2:29.0 3:0.0 4:0.0 5:0.0 6:0.9 7:0.0 8:0.0 9:0.0 10:0.0 
-0.002057097003838826 0:1.0 1:12.0 2:32.0 3:0.0 4:0.0 5:0.0 6:0.9 7:0.0 8:0.0 9:0.0 10:0.0 
-0.003264170780454368 0:1.0 1:24.0 2:38.0 3:0.0 4:0.0 5:0.0 6:0.9 7:0.0 8:0.0 9:0.0 10:0.0 
-0.0029209030408639215 0:1.0 1:26.0 2:40.0 3:0.0 4:0.0 5:0.0 6:0.9 7:0.0 8:0.0 9:0.0 10:0.0 
-0.0010832357139891613 0:1.0 1:11.0 2:31.0 3:0.0 4:0.0 5:0.0 6:0.9 7:0.0 8:0.0 9:0.0 10:0.0 
-0.0012332643711638772 0:1.0 1:7.0 2:27.0 3:0.0 4:0.0 5:0.0 6:0.9 7:0.0 8:0.0 9:0.0 10:0.0 
-0.002209754463310676 0:1.0 1:15.0 2:6.0 3:0.0 4:0.0 5:0.0 6:0.8 7:0.0 8:0.0 9:0.0 10:0.0 
-0.014200238641511752 0:1.0 1:17.0 2:8.0 3:0.0 4:0.0 5:0.0 6:0.8 7:0.0 8:0.0 9:0.0 10:0.0 
-8.543634312732294E-4 0:1.0 1:23.0 2:37.0 3:0.0 4:0.0 5:0.0 6:0.9 7:0.0 8:0.0 9:0.0 10:0.0 
-6.397737163327929E-4 0:1.0 1:25.0 2:39.0 3:0.0 4:0.0 5:0.0 6:0.9 7:0.0 8:0.0 9:0.0 10:0.0 
-0.0028423200051700837 0:1.0 1:72.0 2:3.0 3:0.0 4:0.0 5:0.0 6:0.5 7:0.0 8:0.0 9:0.0 10:0.0 
-0.002893901969142118 0:1.0 1:18.0 2:33.0 3:0.0 4:0.0 5:0.0 6:0.9 7:0.0 8:0.0 9:0.0 10:0.0 
-6.678799450617334E-4 0:1.0 1:121.0 2:121.0 3:0.0 4:0.0 5:0.0 6:0.9 7:0.0 8:0.0 9:0.0 10:0.0 
-0.002163010861868166 0:1.0 1:103.0 2:105.0 3:0.0 4:0.0 5:0.0 6:0.9 7:0.0 8:0.0 9:0.0 10:0.0 
-0.0034516432616475455 0:1.0 1:22.0 2:36.0 3:0.0 4:0.0 5:0.0 6:0.9 7:0.0 8:0.0 9:0.0 10:0.0 
-0.003537011213530459 0:1.0 1:69.0 2:79.0 3:0.0 4:0.0 5:0.0 6:0.9 7:0.0 8:0.0 9:0.0 10:0.0 
-0.0036627551473095987 0:1.0 1:128.0 2:128.0 3:0.0 4:0.0 5:0.0 6:0.9 7:0.0 8:0.0 9:0.0 10:0.0 
-8.093680210155272E-4 0:1.0 1:127.0 2:127.0 3:0.0 4:0.0 5:0.0 6:0.9 7:0.0 8:0.0 9:0.0 10:0.0 
-0.0010549295378829981 0:1.0 1:125.0 2:125.0 3:0.0 4:0.0 5:0.0 6:0.9 7:0.0 8:0.0 9:0.0 10:0.0 
-0.0031165491380779524 0:1.0 1:126.0 2:126.0 3:0.0 4:0.0 5:0.0 6:0.9 7:0.0 8:0.0 9:0.0 10:0.0 
-0.0030250326213950296 0:1.0 1:124.0 2:124.0 3:0.0 4:0.0 5:0.0 6:0.9 7:0.0 8:0.0 9:0.0 10:0.0 
-1.0 0:1.0 1:0.0 2:0.0 3:0.0 4:0.0 5:0.0 6:0.5 7:0.0 8:1.0 9:1.0 10:1.0 
-1.0 0:1.0 1:1.0 2:2.0 3:0.0 4:0.0 5:0.0 6:0.8888888888888888 7:0.0 8:1.0 9:1.0 10:1.0 
-0.4268367841190405 0:1.0 1:2.0 2:5.0 3:0.0 4:0.0 5:0.0 6:0.8888888888888888 7:0.0 8:1.0 9:1.0 10:1.0 
-1.0 0:1.0 1:5.0 2:3.0 3:0.0 4:0.0 5:0.0 6:0.8888888888888888 7:0.0 8:1.0 9:1.0 10:1.0 
-1.0 0:1.0 1:0.0 2:0.0 3:0.0 4:0.0 5:0.0 6:0.8888888888888888 7:0.0 8:1.0 9:1.0 10:1.0 
-1.0 0:1.0 1:4.0 2:3.0 3:0.0 4:0.0 5:0.0 6:0.8888888888888888 7:0.0 8:1.0 9:1.0 10:1.0 
-0.0018679477248136748 0:1.0 1:144.0 2:114.0 3:0.0 4:0.0 5:0.0 6:0.2727272727272727 7:0.0 8:1.0 9:1.0 10:1.0 
-0.002748761910201973 0:1.0 1:145.0 2:115.0 3:0.0 4:0.0 5:0.0 6:0.23809523809523814 7:0.0 8:1.0 9:1.0 10:1.0 
-0.0033338883301149425 0:1.0 1:146.0 2:23.0 3:0.0 4:0.0 5:0.0 6:0.625 7:0.0 8:1.0 9:1.0 10:1.0 
-0.0032548595720979234 0:1.0 1:143.0 2:113.0 3:0.0 4:0.0 5:0.0 6:0.4285714285714286 7:0.0 8:1.0 9:1.0 10:1.0 
-0.0039667643869444325 0:1.0 1:141.0 2:278.0 3:0.0 4:0.0 5:0.0 6:0.25 7:0.0 8:1.0 9:1.0 10:1.0 
-0.003390259407807129 0:1.0 1:147.0 2:279.0 3:0.0 4:0.0 5:0.0 6:0.0 7:0.0 8:1.0 9:1.0 10:1.0 
-0.003318935343934737 0:1.0 1:142.0 2:9.0 3:0.0 4:0.0 5:0.0 6:0.3125 7:0.0 8:1.0 9:1.0 10:1.0 
-0.00400880107662388 0:1.0 1:393.0 2:68.0 3:0.0 4:0.0 5:0.0 6:0.375 7:0.0 8:1.0 9:1.0 10:1.0 
-0.0034848839595000482 0:1.0 1:399.0 2:315.0 3:0.0 4:0.0 5:0.0 6:0.25 7:0.0 8:1.0 9:1.0 10:1.0 
-0.0033411887230740955 0:1.0 1:396.0 2:493.0 3:0.0 4:0.0 5:0.0 6:0.75 7:0.0 8:1.0 9:1.0 10:1.0 
-0.003373827722723932 0:1.0 1:397.0 2:424.0 3:0.0 4:0.0 5:0.0 6:0.625 7:0.0 8:1.0 9:1.0 10:1.0 
-0.0039391098160799776 0:1.0 1:392.0 2:234.0 3:0.0 4:0.0 5:0.0 6:0.24 7:0.0 8:1.0 9:1.0 10:1.0 
-0.0022056446449093547 0:1.0 1:31.0 2:77.0 3:0.0 4:0.0 5:0.0 6:0.26086956521739135 7:0.0 8:1.0 9:1.0 10:1.0 
-0.0027273745607231635 0:1.0 1:398.0 2:314.0 3:0.0 4:0.0 5:0.0 6:0.625 7:0.0 8:1.0 9:1.0 10:1.0 
-0.003761360669282346 0:1.0 1:390.0 2:232.0 3:0.0 4:0.0 5:0.0 6:0.3571428571428571 7:0.0 8:1.0 9:1.0 10:1.0 
-0.004190337663100563 0:1.0 1:395.0 2:313.0 3:0.0 4:0.0 5:0.0 6:0.5 7:0.0 8:1.0 9:1.0 10:1.0 
-0.0035533915065259604 0:1.0 1:394.0 2:235.0 3:0.0 4:0.0 5:0.0 6:0.2857142857142857 7:0.0 8:1.0 9:1.0 10:1.0 
-0.004155972589759194 0:1.0 1:240.0 2:59.0 3:0.0 4:0.0 5:0.0 6:0.625 7:0.0 8:1.0 9:1.0 10:1.0 
-0.002970234318266596 0:1.0 1:241.0 2:376.0 3:0.0 4:0.0 5:0.0 6:0.625 7:0.0 8:1.0 9:1.0 10:1.0 
-0.0038325765322692476 0:1.0 1:25.0 2:335.0 3:0.0 4:0.0 5:0.0 6:0.625 7:0.0 8:1.0 9:1.0 10:1.0 
-0.0033069829007362217 0:1.0 1:242.0 2:298.0 3:0.0 4:0.0 5:0.0 6:0.2941176470588235 7:0.0 8:1.0 9:1.0 10:1.0 
-0.0019163663575764711 0:1.0 1:38.0 2:4.0 3:0.0 4:0.0 5:0.0 6:0.2857142857142857 7:0.0 8:1.0 9:1.0 10:1.0 
-0.0041628942432059834 0:1.0 1:648.0 2:458.0 3:0.0 4:0.0 5:0.0 6:0.625 7:0.0 8:1.0 9:1.0 10:1.0 
-0.0026583810502564405 0:1.0 1:650.0 2:257.0 3:0.0 4:0.0 5:0.0 6:0.19999999999999996 7:0.0 8:1.0 9:1.0 10:1.0 
-0.002317228676056964 0:1.0 1:243.0 2:172.0 3:0.0 4:0.0 5:0.0 6:0.375 7:0.0 8:1.0 9:1.0 10:1.0 
-0.0032970465863443733 0:1.0 1:647.0 2:256.0 3:0.0 4:0.0 5:0.0 6:0.625 7:0.0 8:1.0 9:1.0 10:1.0 
-0.0018974033952467739 0:1.0 1:36.0 2:337.0 3:0.0 4:0.0 5:0.0 6:0.625 7:0.0 8:1.0 9:1.0 10:1.0 
-0.0027833325265384824 0:1.0 1:12.0 2:331.0 3:0.0 4:0.0 5:0.0 6:0.625 7:0.0 8:1.0 9:1.0 10:1.0 
-0.0044068968566864375 0:1.0 1:238.0 2:171.0 3:0.0 4:0.0 5:0.0 6:0.2941176470588235 7:0.0 8:1.0 9:1.0 10:1.0 
-0.0017942421936475007 0:1.0 1:646.0 2:255.0 3:0.0 4:0.0 5:0.0 6:0.625 7:0.0 8:1.0 9:1.0 10:1.0 
-0.0029583592330181263 0:1.0 1:649.0 2:42.0 3:0.0 4:0.0 5:0.0 6:0.625 7:0.0 8:1.0 9:1.0 10:1.0 
-0.003810241804960121 0:1.0 1:233.0 2:168.0 3:0.0 4:0.0 5:0.0 6:0.30000000000000004 7:0.0 8:1.0 9:1.0 10:1.0 
-0.002102131683692332 0:1.0 1:642.0 2:252.0 3:0.0 4:0.0 5:0.0 6:0.375 7:0.0 8:1.0 9:1.0 10:1.0 
-0.0032530826155526076 0:1.0 1:41.0 2:81.0 3:0.0 4:0.0 5:0.0 6:0.3157894736842105 7:0.0 8:1.0 9:1.0 10:1.0 
-0.004136562056373305 0:1.0 1:236.0 2:169.0 3:0.0 4:0.0 5:0.0 6:0.3529411764705882 7:0.0 8:1.0 9:1.0 10:1.0 
-0.0013499287311160262 0:1.0 1:232.0 2:167.0 3:0.0 4:0.0 5:0.0 6:0.3157894736842105 7:0.0 8:1.0 9:1.0 10:1.0 
-0.0039940839616602886 0:1.0 1:643.0 2:41.0 3:0.0 4:0.0 5:0.0 6:0.2941176470588235 7:0.0 8:1.0 9:1.0 10:1.0 
-0.0034551085746569025 0:1.0 1:651.0 2:258.0 3:0.0 4:0.0 5:0.0 6:0.3571428571428571 7:0.0 8:1.0 9:1.0 10:1.0 
-0.0030179280922524253 0:1.0 1:644.0 2:253.0 3:0.0 4:0.0 5:0.0 6:0.625 7:0.0 8:1.0 9:1.0 10:1.0 
-0.003256024082979086 0:1.0 1:234.0 2:57.0 3:0.0 4:0.0 5:0.0 6:0.2727272727272727 7:0.0 8:1.0 9:1.0 10:1.0 
-0.0019200758407176804 0:1.0 1:235.0 2:58.0 3:0.0 4:0.0 5:0.0 6:0.2857142857142857 7:0.0 8:1.0 9:1.0 10:1.0 
-0.004169363626416511 0:1.0 1:239.0 2:297.0 3:0.0 4:0.0 5:0.0 6:0.625 7:0.0 8:1.0 9:1.0 10:1.0 
-0.002291921453010628 0:1.0 1:33.0 2:79.0 3:0.0 4:0.0 5:0.0 6:0.3529411764705882 7:0.0 8:1.0 9:1.0 10:1.0 
-0.0014146112578647396 0:1.0 1:645.0 2:254.0 3:0.0 4:0.0 5:0.0 6:0.625 7:0.0 8:1.0 9:1.0 10:1.0 
-0.0016269176362314064 0:1.0 1:229.0 2:165.0 3:0.0 4:0.0 5:0.0 6:0.625 7:0.0 8:1.0 9:1.0 10:1.0 
-0.0028520046719305303 0:1.0 1:90.0 2:96.0 3:0.0 4:0.0 5:0.0 6:0.625 7:0.0 8:1.0 9:1.0 10:1.0 
-0.004164611323074219 0:1.0 1:83.0 2:349.0 3:0.0 4:0.0 5:0.0 6:0.75 7:0.0 8:1.0 9:0.0 10:1.0 
-0.001017451474530362 0:1.0 1:228.0 2:164.0 3:0.0 4:0.0 5:0.0 6:0.23076923076923073 7:0.0 8:1.0 9:1.0 10:1.0 
-0.003570359818037919 0:1.0 1:230.0 2:166.0 3:0.0 4:0.0 5:0.0 6:0.36363636363636365 7:0.0 8:1.0 9:1.0 10:1.0 
-0.0037504850469775586 0:1.0 1:115.0 2:484.0 3:0.0 4:0.0 5:0.0 6:0.75 7:0.0 8:1.0 9:1.0 10:1.0 
-0.003466898258582207 0:1.0 1:112.0 2:277.0 3:0.0 4:0.0 5:0.0 6:0.5555555555555556 7:0.0 8:1.0 9:1.0 10:1.0 
-0.00332057076466441 0:1.0 1:86.0 2:21.0 3:0.0 4:0.0 5:0.0 6:0.18181818181818177 7:0.0 8:1.0 9:1.0 10:1.0 
-0.0018112267506784766 0:1.0 1:42.0 2:82.0 3:0.0 4:0.0 5:0.0 6:0.3125 7:0.0 8:1.0 9:1.0 10:1.0 
-0.0023889070700818084 0:1.0 1:103.0 2:106.0 3:0.0 4:0.0 5:0.0 6:0.625 7:0.0 8:1.0 9:1.0 10:1.0 
-0.0024085251131809363 0:1.0 1:82.0 2:479.0 3:0.0 4:0.0 5:0.0 6:0.75 7:0.0 8:1.0 9:0.0 10:1.0 
-0.0016041448562745808 0:1.0 1:87.0 2:46.0 3:0.0 4:0.0 5:0.0 6:0.33333333333333337 7:0.0 8:1.0 9:1.0 10:1.0 
-0.003689711576065069 0:1.0 1:28.0 2:76.0 3:0.0 4:0.0 5:0.0 6:0.2727272727272727 7:0.0 8:1.0 9:1.0 10:1.0 
-0.0029528813195361424 0:1.0 1:85.0 2:481.0 3:0.0 4:0.0 5:0.0 6:0.75 7:0.0 8:1.0 9:0.0 10:1.0 
-0.0031705691546104805 0:1.0 1:81.0 2:478.0 3:0.0 4:0.0 5:0.0 6:0.75 7:0.0 8:1.0 9:0.0 10:1.0 
-0.0037336823632440463 0:1.0 1:79.0 2:476.0 3:0.0 4:0.0 5:0.0 6:0.75 7:0.0 8:1.0 9:0.0 10:1.0 
-0.0029225658957263484 0:1.0 1:37.0 2:338.0 3:0.0 4:0.0 5:0.0 6:0.625 7:0.0 8:1.0 9:1.0 10:1.0 
-0.0032168234273340897 0:1.0 1:130.0 2:363.0 3:0.0 4:0.0 5:0.0 6:0.625 7:0.0 8:1.0 9:1.0 10:1.0 
-9.707223759668482E-4 0:1.0 1:98.0 2:101.0 3:0.0 4:0.0 5:0.0 6:0.625 7:0.0 8:1.0 9:1.0 10:1.0 
-0.0027964144812744895 0:1.0 1:97.0 2:49.0 3:0.0 4:0.0 5:0.0 6:0.625 7:0.0 8:1.0 9:1.0 10:1.0 
-0.0031457662452077364 0:1.0 1:132.0 2:365.0 3:0.0 4:0.0 5:0.0 6:0.625 7:0.0 8:1.0 9:1.0 10:1.0 
-0.003223003999638973 0:1.0 1:124.0 2:358.0 3:0.0 4:0.0 5:0.0 6:0.625 7:0.0 8:1.0 9:1.0 10:1.0 
-0.0036080114131232005 0:1.0 1:127.0 2:361.0 3:0.0 4:0.0 5:0.0 6:0.625 7:0.0 8:1.0 9:1.0 10:1.0 
-0.003328333042272369 0:1.0 1:128.0 2:112.0 3:0.0 4:0.0 5:0.0 6:0.3157894736842105 7:0.0 8:1.0 9:1.0 10:1.0 
-0.0033617291159472457 0:1.0 1:96.0 2:100.0 3:0.0 4:0.0 5:0.0 6:0.625 7:0.0 8:1.0 9:1.0 10:1.0 
-6.700124703672428E-4 0:1.0 1:133.0 2:366.0 3:0.0 4:0.0 5:0.0 6:0.625 7:0.0 8:1.0 9:1.0 10:1.0 
-0.00330670747447126 0:1.0 1:104.0 2:483.0 3:0.0 4:0.0 5:0.0 6:0.75 7:0.0 8:1.0 9:1.0 10:1.0 
-0.0038808830463791873 0:1.0 1:227.0 2:163.0 3:0.0 4:0.0 5:0.0 6:0.2068965517241379 7:0.0 8:1.0 9:1.0 10:1.0 
-0.0015208958584236876 0:1.0 1:80.0 2:477.0 3:0.0 4:0.0 5:0.0 6:0.75 7:0.0 8:1.0 9:0.0 10:1.0 
-9.751135027973319E-4 0:1.0 1:93.0 2:98.0 3:0.0 4:0.0 5:0.0 6:0.2857142857142857 7:0.0 8:1.0 9:1.0 10:1.0 
-7.836306020087003E-4 0:1.0 1:131.0 2:364.0 3:0.0 4:0.0 5:0.0 6:0.625 7:0.0 8:1.0 9:1.0 10:1.0 
-0.004018876507663638 0:1.0 1:105.0 2:275.0 3:0.0 4:0.0 5:0.0 6:0.625 7:0.0 8:1.0 9:1.0 10:1.0 
-0.0032406444712466675 0:1.0 1:84.0 2:480.0 3:0.0 4:0.0 5:0.0 6:0.75 7:0.0 8:1.0 9:0.0 10:1.0 
-0.003188026205023794 0:1.0 1:35.0 2:336.0 3:0.0 4:0.0 5:0.0 6:0.625 7:0.0 8:1.0 9:1.0 10:1.0 
-0.0031442160646567305 0:1.0 1:244.0 2:173.0 3:0.0 4:0.0 5:0.0 6:0.33333333333333337 7:0.0 8:1.0 9:1.0 10:1.0 
-0.0017572069317160067 0:1.0 1:99.0 2:102.0 3:0.0 4:0.0 5:0.0 6:0.625 7:0.0 8:1.0 9:1.0 10:1.0 
-0.0012277930249214863 0:1.0 1:100.0 2:103.0 3:0.0 4:0.0 5:0.0 6:0.625 7:0.0 8:1.0 9:1.0 10:1.0 
-0.0032372719771314434 0:1.0 1:231.0 2:375.0 3:0.0 4:0.0 5:0.0 6:0.625 7:0.0 8:1.0 9:1.0 10:1.0 
-7.036228884207962E-4 0:1.0 1:102.0 2:105.0 3:0.0 4:0.0 5:0.0 6:0.625 7:0.0 8:1.0 9:1.0 10:1.0 
-0.002563525431127034 0:1.0 1:88.0 2:47.0 3:0.0 4:0.0 5:0.0 6:0.375 7:0.0 8:1.0 9:1.0 10:1.0 
-0.0034478833592648797 0:1.0 1:94.0 2:99.0 3:0.0 4:0.0 5:0.0 6:0.3571428571428571 7:0.0 8:1.0 9:1.0 10:1.0 
-0.0015366272748793001 0:1.0 1:101.0 2:104.0 3:0.0 4:0.0 5:0.0 6:0.625 7:0.0 8:1.0 9:1.0 10:1.0 
-0.004354252615094563 0:1.0 1:247.0 2:174.0 3:0.0 4:0.0 5:0.0 6:0.21739130434782605 7:0.0 8:1.0 9:1.0 10:1.0 
-0.0025262836788640195 0:1.0 1:34.0 2:80.0 3:0.0 4:0.0 5:0.0 6:0.625 7:0.0 8:1.0 9:1.0 10:1.0 
-0.0018389847290225525 0:1.0 1:270.0 2:186.0 3:0.0 4:0.0 5:0.0 6:0.625 7:0.0 8:1.0 9:1.0 10:1.0 
-0.0040184146135857635 0:1.0 1:123.0 2:486.0 3:0.0 4:0.0 5:0.0 6:0.75 7:0.0 8:1.0 9:1.0 10:1.0 
-0.002963738099805285 0:1.0 1:118.0 2:353.0 3:0.0 4:0.0 5:0.0 6:0.625 7:0.0 8:1.0 9:1.0 10:1.0 
-9.312551911722356E-4 0:1.0 1:356.0 2:390.0 3:0.0 4:0.0 5:0.0 6:0.625 7:0.0 8:1.0 9:1.0 10:1.0 
-7.705748628691889E-4 0:1.0 1:139.0 2:371.0 3:0.0 4:0.0 5:0.0 6:0.625 7:0.0 8:1.0 9:1.0 10:1.0 
-0.003688012456179869 0:1.0 1:140.0 2:372.0 3:0.0 4:0.0 5:0.0 6:0.625 7:0.0 8:1.0 9:1.0 10:1.0 
-0.0021847063902272054 0:1.0 1:138.0 2:370.0 3:0.0 4:0.0 5:0.0 6:0.625 7:0.0 8:1.0 9:1.0 10:1.0 
-0.0023004528445616703 0:1.0 1:282.0 2:384.0 3:0.0 4:0.0 5:0.0 6:0.625 7:0.0 8:1.0 9:1.0 10:1.0 
-0.002574587833165609 0:1.0 1:137.0 2:369.0 3:0.0 4:0.0 5:0.0 6:0.625 7:0.0 8:1.0 9:1.0 10:1.0 
-0.003984127948117977 0:1.0 1:134.0 2:367.0 3:0.0 4:0.0 5:0.0 6:0.625 7:0.0 8:1.0 9:1.0 10:1.0 
-0.003245120540406765 0:1.0 1:135.0 2:487.0 3:0.0 4:0.0 5:0.0 6:0.75 7:0.0 8:1.0 9:1.0 10:1.0 
-0.0035161929130793418 0:1.0 1:116.0 2:352.0 3:0.0 4:0.0 5:0.0 6:0.625 7:0.0 8:1.0 9:1.0 10:1.0 
-0.0014748809930776512 0:1.0 1:108.0 2:109.0 3:0.0 4:0.0 5:0.0 6:0.625 7:0.0 8:1.0 9:1.0 10:1.0 
-0.0034260642074039793 0:1.0 1:117.0 2:485.0 3:0.0 4:0.0 5:0.0 6:0.75 7:0.0 8:1.0 9:1.0 10:1.0 
-0.0015316825445526572 0:1.0 1:203.0 2:146.0 3:0.0 4:0.0 5:0.0 6:0.2941176470588235 7:0.0 8:1.0 9:1.0 10:1.0 
-0.0031564675278190025 0:1.0 1:200.0 2:143.0 3:0.0 4:0.0 5:0.0 6:0.2941176470588235 7:0.0 8:1.0 9:1.0 10:1.0 
-0.0031576252446329223 0:1.0 1:205.0 2:148.0 3:0.0 4:0.0 5:0.0 6:0.2941176470588235 7:0.0 8:1.0 9:1.0 10:1.0 
-0.0015508232673245859 0:1.0 1:204.0 2:147.0 3:0.0 4:0.0 5:0.0 6:0.2941176470588235 7:0.0 8:1.0 9:1.0 10:1.0 
-9.98887368232504E-4 0:1.0 1:40.0 2:17.0 3:0.0 4:0.0 5:0.0 6:0.375 7:0.0 8:1.0 9:1.0 10:1.0 
-0.0019170686983768226 0:1.0 1:136.0 2:368.0 3:0.0 4:0.0 5:0.0 6:0.625 7:0.0 8:1.0 9:1.0 10:1.0 
-0.0012593254528850885 0:1.0 1:114.0 2:351.0 3:0.0 4:0.0 5:0.0 6:0.625 7:0.0 8:1.0 9:1.0 10:1.0 
-0.0018499037702151657 0:1.0 1:213.0 2:156.0 3:0.0 4:0.0 5:0.0 6:0.2941176470588235 7:0.0 8:1.0 9:1.0 10:1.0 
-0.0037428639952544274 0:1.0 1:113.0 2:350.0 3:0.0 4:0.0 5:0.0 6:0.625 7:0.0 8:1.0 9:1.0 10:1.0 
-0.00286807407366395 0:1.0 1:92.0 2:97.0 3:0.0 4:0.0 5:0.0 6:0.3529411764705882 7:0.0 8:1.0 9:1.0 10:1.0 
-0.003066626661057059 0:1.0 1:53.0 2:86.0 3:0.0 4:0.0 5:0.0 6:0.3157894736842105 7:0.0 8:1.0 9:1.0 10:1.0 
-0.0017143105534123126 0:1.0 1:216.0 2:159.0 3:0.0 4:0.0 5:0.0 6:0.2941176470588235 7:0.0 8:1.0 9:1.0 10:1.0 
-0.0017825122382333196 0:1.0 1:217.0 2:160.0 3:0.0 4:0.0 5:0.0 6:0.2941176470588235 7:0.0 8:1.0 9:1.0 10:1.0 
-0.003738810346556145 0:1.0 1:186.0 2:129.0 3:0.0 4:0.0 5:0.0 6:0.3846153846153846 7:0.0 8:1.0 9:1.0 10:1.0 
-0.0033123165901405376 0:1.0 1:252.0 2:176.0 3:0.0 4:0.0 5:0.0 6:0.33333333333333337 7:0.0 8:1.0 9:1.0 10:1.0 
-0.003796860602776031 0:1.0 1:218.0 2:161.0 3:0.0 4:0.0 5:0.0 6:0.2941176470588235 7:0.0 8:1.0 9:1.0 10:1.0 
-0.001974033829481395 0:1.0 1:215.0 2:158.0 3:0.0 4:0.0 5:0.0 6:0.2941176470588235 7:0.0 8:1.0 9:1.0 10:1.0 
-0.0023148065572868304 0:1.0 1:214.0 2:157.0 3:0.0 4:0.0 5:0.0 6:0.2941176470588235 7:0.0 8:1.0 9:1.0 10:1.0 
-0.003028179995983567 0:1.0 1:121.0 2:356.0 3:0.0 4:0.0 5:0.0 6:0.625 7:0.0 8:1.0 9:1.0 10:1.0 
-0.0025887290922743614 0:1.0 1:281.0 2:383.0 3:0.0 4:0.0 5:0.0 6:0.625 7:0.0 8:1.0 9:1.0 10:1.0 
-0.0019166335433588257 0:1.0 1:122.0 2:357.0 3:0.0 4:0.0 5:0.0 6:0.625 7:0.0 8:1.0 9:1.0 10:1.0 
-0.0028062423537217884 0:1.0 1:212.0 2:155.0 3:0.0 4:0.0 5:0.0 6:0.2941176470588235 7:0.0 8:1.0 9:1.0 10:1.0 
-0.0024133137025613913 0:1.0 1:211.0 2:154.0 3:0.0 4:0.0 5:0.0 6:0.2941176470588235 7:0.0 8:1.0 9:1.0 10:1.0 
-0.0019737700425394578 0:1.0 1:111.0 2:276.0 3:0.0 4:0.0 5:0.0 6:0.11111111111111116 7:0.0 8:1.0 9:1.0 10:1.0 
-0.0012517099040961766 0:1.0 1:207.0 2:150.0 3:0.0 4:0.0 5:0.0 6:0.2941176470588235 7:0.0 8:1.0 9:1.0 10:1.0 
-0.0011586771227389825 0:1.0 1:209.0 2:152.0 3:0.0 4:0.0 5:0.0 6:0.2941176470588235 7:0.0 8:1.0 9:1.0 10:1.0 
-0.0034652496052820503 0:1.0 1:208.0 2:151.0 3:0.0 4:0.0 5:0.0 6:0.2941176470588235 7:0.0 8:1.0 9:1.0 10:1.0 
-0.0017504744739179972 0:1.0 1:210.0 2:153.0 3:0.0 4:0.0 5:0.0 6:0.2941176470588235 7:0.0 8:1.0 9:1.0 10:1.0 
-0.0020371129069173266 0:1.0 1:206.0 2:149.0 3:0.0 4:0.0 5:0.0 6:0.2941176470588235 7:0.0 8:1.0 9:1.0 10:1.0 
-0.003726363272717945 0:1.0 1:95.0 2:482.0 3:0.0 4:0.0 5:0.0 6:0.75 7:0.0 8:1.0 9:1.0 10:1.0 
-0.0028960764331312982 0:1.0 1:202.0 2:145.0 3:0.0 4:0.0 5:0.0 6:0.2941176470588235 7:0.0 8:1.0 9:1.0 10:1.0 
-0.0034414352632718415 0:1.0 1:269.0 2:29.0 3:0.0 4:0.0 5:0.0 6:0.3571428571428571 7:0.0 8:1.0 9:1.0 10:1.0 
-0.0011982125376853755 0:1.0 1:126.0 2:360.0 3:0.0 4:0.0 5:0.0 6:0.625 7:0.0 8:1.0 9:1.0 10:1.0 
-0.0016367721758597797 0:1.0 1:125.0 2:359.0 3:0.0 4:0.0 5:0.0 6:0.625 7:0.0 8:1.0 9:1.0 10:1.0 
-0.0011435713764626364 0:1.0 1:201.0 2:144.0 3:0.0 4:0.0 5:0.0 6:0.2941176470588235 7:0.0 8:1.0 9:1.0 10:1.0 
-0.0013820695671513117 0:1.0 1:120.0 2:355.0 3:0.0 4:0.0 5:0.0 6:0.625 7:0.0 8:1.0 9:1.0 10:1.0 
-0.001725171849839846 0:1.0 1:119.0 2:354.0 3:0.0 4:0.0 5:0.0 6:0.625 7:0.0 8:1.0 9:1.0 10:1.0 
-0.0012935941826390995 0:1.0 1:199.0 2:142.0 3:0.0 4:0.0 5:0.0 6:0.2941176470588235 7:0.0 8:1.0 9:1.0 10:1.0 
-9.002914925927419E-4 0:1.0 1:280.0 2:382.0 3:0.0 4:0.0 5:0.0 6:0.625 7:0.0 8:1.0 9:1.0 10:1.0 
-0.0013984582892849235 0:1.0 1:129.0 2:362.0 3:0.0 4:0.0 5:0.0 6:0.625 7:0.0 8:1.0 9:1.0 10:1.0 
-0.00341563395163913 0:1.0 1:193.0 2:136.0 3:0.0 4:0.0 5:0.0 6:0.2941176470588235 7:0.0 8:1.0 9:1.0 10:1.0 
-0.0023400251313467277 0:1.0 1:267.0 2:185.0 3:0.0 4:0.0 5:0.0 6:0.625 7:0.0 8:1.0 9:1.0 10:1.0 
-0.0038604580863081245 0:1.0 1:198.0 2:141.0 3:0.0 4:0.0 5:0.0 6:0.2941176470588235 7:0.0 8:1.0 9:1.0 10:1.0 
-0.0013786285483619598 0:1.0 1:197.0 2:140.0 3:0.0 4:0.0 5:0.0 6:0.2941176470588235 7:0.0 8:1.0 9:1.0 10:1.0 
-0.002582156048660176 0:1.0 1:196.0 2:139.0 3:0.0 4:0.0 5:0.0 6:0.2941176470588235 7:0.0 8:1.0 9:1.0 10:1.0 
-0.003758819673864506 0:1.0 1:160.0 2:24.0 3:0.0 4:0.0 5:0.0 6:0.625 7:0.0 8:1.0 9:1.0 10:1.0 
-0.0030457058881877535 0:1.0 1:279.0 2:381.0 3:0.0 4:0.0 5:0.0 6:0.625 7:0.0 8:1.0 9:1.0 10:1.0 
-0.0028693375058445308 0:1.0 1:195.0 2:138.0 3:0.0 4:0.0 5:0.0 6:0.2941176470588235 7:0.0 8:1.0 9:1.0 10:1.0 
-0.003515079987840397 0:1.0 1:251.0 2:299.0 3:0.0 4:0.0 5:0.0 6:0.26086956521739135 7:0.0 8:1.0 9:1.0 10:1.0 
-0.0011927676789705193 0:1.0 1:194.0 2:137.0 3:0.0 4:0.0 5:0.0 6:0.2941176470588235 7:0.0 8:1.0 9:1.0 10:1.0 
-0.0033543556327068364 0:1.0 1:148.0 2:116.0 3:0.0 4:0.0 5:0.0 6:0.1785714285714286 7:0.0 8:1.0 9:1.0 10:1.0 
-0.003327078383729372 0:1.0 1:91.0 2:22.0 3:0.0 4:0.0 5:0.0 6:0.26086956521739135 7:0.0 8:1.0 9:1.0 10:1.0 
-0.003911400650683572 0:1.0 1:150.0 2:117.0 3:0.0 4:0.0 5:0.0 6:0.16666666666666663 7:0.0 8:1.0 9:1.0 10:1.0 
-0.0037280336558942924 0:1.0 1:184.0 2:55.0 3:0.0 4:0.0 5:0.0 6:0.33333333333333337 7:0.0 8:1.0 9:1.0 10:1.0 
-0.0026921857344262123 0:1.0 1:174.0 2:489.0 3:0.0 4:0.0 5:0.0 6:0.75 7:0.0 8:1.0 9:1.0 10:1.0 
-0.00322534519675155 0:1.0 1:156.0 2:50.0 3:0.0 4:0.0 5:0.0 6:0.625 7:0.0 8:1.0 9:1.0 10:1.0 
-9.871438093488338E-4 0:1.0 1:187.0 2:130.0 3:0.0 4:0.0 5:0.0 6:0.2941176470588235 7:0.0 8:1.0 9:1.0 10:1.0 
-0.003562726448390444 0:1.0 1:191.0 2:134.0 3:0.0 4:0.0 5:0.0 6:0.2941176470588235 7:0.0 8:1.0 9:1.0 10:1.0 
-8.727378525026919E-4 0:1.0 1:192.0 2:135.0 3:0.0 4:0.0 5:0.0 6:0.2941176470588235 7:0.0 8:1.0 9:1.0 10:1.0 
-0.004184953628726202 0:1.0 1:171.0 2:124.0 3:0.0 4:0.0 5:0.0 6:0.625 7:0.0 8:1.0 9:1.0 10:1.0 
-0.003415158151867548 0:1.0 1:167.0 2:288.0 3:0.0 4:0.0 5:0.0 6:0.625 7:0.0 8:1.0 9:1.0 10:1.0 
-0.004093822757867016 0:1.0 1:166.0 2:123.0 3:0.0 4:0.0 5:0.0 6:0.625 7:0.0 8:1.0 9:1.0 10:1.0 
-0.002124288892370152 0:1.0 1:168.0 2:289.0 3:0.0 4:0.0 5:0.0 6:0.625 7:0.0 8:1.0 9:1.0 10:1.0 
